svm_type c_svc
kernel_type rbf
gamma 0.1
nr_class 2
total_sv 1308
rho 0.6407076496832973
label 1 0
nr_sv 641 667
SV
0.009535868960456483 1:2.0 2:3.0 3:5.0 4:4.0 5:2.0 6:10.0 
0.05 1:2.0 2:2.0 3:7.0 4:3.0 5:2.0 6:7.0 
0.05 1:3.0 2:3.0 3:5.0 4:7.0 5:2.0 6:10.0 
0.05 1:2.0 2:3.0 3:5.0 4:7.0 5:2.0 6:4.0 
0.05 1:2.0 2:3.0 3:5.0 4:7.0 5:4.0 6:5.0 
0.0027888358989755636 1:3.0 2:3.0 3:7.0 4:5.0 5:4.0 6:7.0 
0.05 1:3.0 2:3.0 3:7.0 4:6.0 5:4.0 6:10.0 
0.05 1:2.0 2:2.0 3:7.0 4:7.0 5:2.0 6:7.0 
0.0017262849727121277 1:3.0 2:3.0 3:7.0 4:3.0 5:4.0 6:8.0 
0.05 1:3.0 2:2.0 3:5.0 4:4.0 5:2.0 6:4.0 
0.05 1:3.0 2:3.0 3:7.0 4:7.0 5:2.0 6:4.0 
0.05 1:3.0 2:2.0 3:7.0 4:7.0 5:4.0 6:4.0 
0.05 1:3.0 2:2.0 3:5.0 4:3.0 5:2.0 6:7.0 
0.05 1:2.0 2:2.0 3:5.0 4:3.0 5:2.0 6:8.0 
0.046041195826991704 1:3.0 2:2.0 3:7.0 4:6.0 5:4.0 6:10.0 
0.05 1:3.0 2:3.0 3:5.0 4:7.0 5:2.0 6:4.0 
0.05 1:2.0 2:3.0 3:5.0 4:3.0 5:2.0 6:5.0 
0.05 1:2.0 2:3.0 3:5.0 4:4.0 5:4.0 6:4.0 
0.05 1:2.0 2:3.0 3:7.0 4:3.0 5:2.0 6:4.0 
0.05 1:2.0 2:2.0 3:5.0 4:7.0 5:4.0 6:7.0 
0.05 1:2.0 2:2.0 3:5.0 4:7.0 5:4.0 6:4.0 
0.05 1:2.0 2:2.0 3:7.0 4:3.0 5:4.0 6:7.0 
0.05 1:3.0 2:2.0 3:5.0 4:3.0 5:2.0 6:4.0 
0.05 1:3.0 2:2.0 3:5.0 4:3.0 5:4.0 6:9.0 
0.05 1:2.0 2:3.0 3:5.0 4:7.0 5:2.0 6:4.0 
0.05 1:2.0 2:2.0 3:7.0 4:5.0 5:2.0 6:7.0 
0.05 1:3.0 2:3.0 3:7.0 4:7.0 5:4.0 6:9.0 
0.041991329870510075 1:2.0 2:3.0 3:7.0 4:4.0 5:4.0 6:10.0 
0.05 1:2.0 2:2.0 3:7.0 4:6.0 5:4.0 6:10.0 
0.05 1:3.0 2:2.0 3:7.0 4:7.0 5:4.0 6:8.0 
0.05 1:2.0 2:3.0 3:5.0 4:7.0 5:4.0 6:8.0 
0.05 1:3.0 2:3.0 3:5.0 4:7.0 5:4.0 6:4.0 
0.05 1:3.0 2:2.0 3:6.0 4:7.0 5:2.0 6:4.0 
0.05 1:3.0 2:3.0 3:7.0 4:3.0 5:2.0 6:10.0 
0.05 1:2.0 2:3.0 3:5.0 4:7.0 5:4.0 6:7.0 
0.05 1:2.0 2:3.0 3:7.0 4:5.0 5:4.0 6:7.0 
0.05 1:3.0 2:3.0 3:7.0 4:7.0 5:2.0 6:10.0 
0.05 1:3.0 2:2.0 3:7.0 4:3.0 5:4.0 6:4.0 
0.05 1:3.0 2:2.0 3:5.0 4:3.0 5:2.0 6:9.0 
0.05 1:2.0 2:2.0 3:5.0 4:3.0 5:3.0 6:4.0 
0.05 1:3.0 2:3.0 3:5.0 4:6.0 5:4.0 6:10.0 
0.05 1:2.0 2:3.0 3:5.0 4:3.0 5:2.0 6:5.0 
0.05 1:3.0 2:2.0 3:5.0 4:7.0 5:2.0 6:4.0 
0.05 1:3.0 2:2.0 3:5.0 4:6.0 5:2.0 6:10.0 
0.05 1:2.0 2:2.0 3:7.0 4:3.0 5:2.0 6:7.0 
0.05 1:3.0 2:2.0 3:5.0 4:3.0 5:4.0 6:4.0 
0.05 1:3.0 2:3.0 3:7.0 4:7.0 5:4.0 6:7.0 
0.05 1:2.0 2:2.0 3:5.0 4:3.0 5:4.0 6:5.0 
0.05 1:3.0 2:2.0 3:7.0 4:7.0 5:2.0 6:7.0 
0.044364370731435745 1:3.0 2:2.0 3:5.0 4:7.0 5:4.0 6:8.0 
0.05 1:3.0 2:3.0 3:5.0 4:6.0 5:2.0 6:4.0 
0.05 1:3.0 2:3.0 3:7.0 4:7.0 5:2.0 6:10.0 
0.05 1:2.0 2:2.0 3:7.0 4:5.0 5:4.0 6:7.0 
0.008259644912494393 1:2.0 2:2.0 3:5.0 4:7.0 5:2.0 6:8.0 
0.028656915299167814 1:2.0 2:2.0 3:5.0 4:7.0 5:4.0 6:5.0 
0.05 1:3.0 2:3.0 3:7.0 4:4.0 5:2.0 6:10.0 
0.05 1:3.0 2:3.0 3:5.0 4:7.0 5:2.0 6:8.0 
0.05 1:3.0 2:3.0 3:5.0 4:7.0 5:4.0 6:4.0 
0.05 1:2.0 2:3.0 3:5.0 4:7.0 5:2.0 6:5.0 
0.05 1:2.0 2:2.0 3:5.0 4:3.0 5:4.0 6:5.0 
0.05 1:2.0 2:2.0 3:7.0 4:7.0 5:4.0 6:4.0 
0.05 1:3.0 2:2.0 3:5.0 4:3.0 5:2.0 6:10.0 
0.05 1:3.0 2:3.0 3:5.0 4:3.0 5:2.0 6:10.0 
0.05 1:2.0 2:3.0 3:5.0 4:4.0 5:4.0 6:4.0 
0.05 1:2.0 2:3.0 3:7.0 4:6.0 5:2.0 6:10.0 
0.05 1:3.0 2:2.0 3:5.0 4:6.0 5:2.0 6:4.0 
0.05 1:3.0 2:3.0 3:7.0 4:5.0 5:4.0 6:7.0 
0.05 1:2.0 2:2.0 3:7.0 4:7.0 5:2.0 6:7.0 
0.05 1:2.0 2:3.0 3:5.0 4:7.0 5:3.0 6:4.0 
0.05 1:3.0 2:3.0 3:7.0 4:5.0 5:2.0 6:7.0 
0.05 1:3.0 2:2.0 3:5.0 4:7.0 5:4.0 6:10.0 
0.05 1:2.0 2:3.0 3:7.0 4:7.0 5:4.0 6:8.0 
0.05 1:3.0 2:3.0 3:5.0 4:7.0 5:2.0 6:4.0 
0.05 1:2.0 2:2.0 3:5.0 4:7.0 5:4.0 6:10.0 
0.05 1:2.0 2:3.0 3:5.0 4:7.0 5:2.0 6:4.0 
0.05 1:3.0 2:2.0 3:7.0 4:4.0 5:4.0 6:10.0 
0.05 1:2.0 2:2.0 3:7.0 4:7.0 5:2.0 6:4.0 
0.05 1:2.0 2:2.0 3:7.0 4:3.0 5:2.0 6:7.0 
0.05 1:3.0 2:2.0 3:5.0 4:7.0 5:2.0 6:5.0 
0.05 1:2.0 2:2.0 3:7.0 4:3.0 5:2.0 6:7.0 
0.05 1:3.0 2:2.0 3:5.0 4:7.0 5:4.0 6:4.0 
0.05 1:3.0 2:2.0 3:7.0 4:7.0 5:4.0 6:4.0 
0.05 1:2.0 2:3.0 3:7.0 4:7.0 5:4.0 6:4.0 
0.05 1:2.0 2:2.0 3:5.0 4:4.0 5:2.0 6:4.0 
0.03186489980735638 1:3.0 2:3.0 3:5.0 4:3.0 5:4.0 6:9.0 
0.05 1:3.0 2:2.0 3:7.0 4:3.0 5:4.0 6:10.0 
0.05 1:3.0 2:3.0 3:5.0 4:3.0 5:2.0 6:4.0 
0.05 1:2.0 2:3.0 3:7.0 4:7.0 5:4.0 6:4.0 
0.05 1:3.0 2:3.0 3:7.0 4:7.0 5:4.0 6:4.0 
0.05 1:3.0 2:3.0 3:5.0 4:3.0 5:4.0 6:5.0 
0.05 1:2.0 2:3.0 3:5.0 4:7.0 5:4.0 6:8.0 
0.05 1:3.0 2:3.0 3:5.0 4:3.0 5:4.0 6:8.0 
0.05 1:3.0 2:3.0 3:7.0 4:7.0 5:4.0 6:9.0 
0.05 1:2.0 2:3.0 3:5.0 4:7.0 5:4.0 6:8.0 
0.05 1:3.0 2:2.0 3:7.0 4:5.0 5:4.0 6:7.0 
0.05 1:3.0 2:3.0 3:5.0 4:7.0 5:4.0 6:7.0 
0.05 1:2.0 2:3.0 3:5.0 4:3.0 5:3.0 6:4.0 
0.0011318124758840508 1:3.0 2:2.0 3:5.0 4:6.0 5:4.0 6:10.0 
0.05 1:3.0 2:2.0 3:5.0 4:7.0 5:2.0 6:4.0 
0.05 1:2.0 2:3.0 3:6.0 4:3.0 5:4.0 6:4.0 
0.05 1:2.0 2:3.0 3:5.0 4:3.0 5:2.0 6:5.0 
0.05 1:2.0 2:3.0 3:5.0 4:7.0 5:2.0 6:5.0 
0.05 1:2.0 2:2.0 3:5.0 4:4.0 5:2.0 6:4.0 
0.05 1:2.0 2:2.0 3:7.0 4:3.0 5:2.0 6:4.0 
0.05 1:2.0 2:3.0 3:7.0 4:3.0 5:2.0 6:7.0 
0.05 1:3.0 2:2.0 3:5.0 4:3.0 5:2.0 6:10.0 
0.05 1:3.0 2:2.0 3:5.0 4:3.0 5:2.0 6:10.0 
0.0028990697219126497 1:3.0 2:2.0 3:5.0 4:7.0 5:2.0 6:8.0 
0.05 1:3.0 2:3.0 3:7.0 4:7.0 5:4.0 6:10.0 
0.05 1:2.0 2:3.0 3:5.0 4:6.0 5:2.0 6:10.0 
0.05 1:2.0 2:3.0 3:7.0 4:3.0 5:2.0 6:10.0 
0.05 1:3.0 2:3.0 3:5.0 4:3.0 5:2.0 6:10.0 
0.011248496305438848 1:3.0 2:3.0 3:5.0 4:4.0 5:2.0 6:10.0 
0.05 1:2.0 2:3.0 3:5.0 4:7.0 5:4.0 6:7.0 
0.05 1:3.0 2:3.0 3:5.0 4:3.0 5:4.0 6:10.0 
0.05 1:2.0 2:2.0 3:5.0 4:7.0 5:4.0 6:10.0 
0.05 1:3.0 2:2.0 3:5.0 4:7.0 5:4.0 6:4.0 
0.05 1:3.0 2:3.0 3:5.0 4:7.0 5:4.0 6:4.0 
0.05 1:2.0 2:2.0 3:7.0 4:3.0 5:4.0 6:10.0 
0.05 1:2.0 2:3.0 3:7.0 4:3.0 5:4.0 6:7.0 
0.05 1:3.0 2:2.0 3:6.0 4:3.0 5:4.0 6:4.0 
0.05 1:3.0 2:2.0 3:6.0 4:7.0 5:2.0 6:4.0 
0.05 1:3.0 2:3.0 3:6.0 4:3.0 5:4.0 6:4.0 
0.05 1:3.0 2:2.0 3:5.0 4:7.0 5:2.0 6:7.0 
0.05 1:3.0 2:2.0 3:7.0 4:7.0 5:4.0 6:4.0 
0.05 1:2.0 2:2.0 3:7.0 4:7.0 5:2.0 6:4.0 
0.05 1:2.0 2:2.0 3:7.0 4:7.0 5:4.0 6:10.0 
0.05 1:3.0 2:3.0 3:5.0 4:3.0 5:4.0 6:10.0 
0.05 1:2.0 2:3.0 3:5.0 4:4.0 5:4.0 6:4.0 
0.05 1:3.0 2:3.0 3:5.0 4:7.0 5:2.0 6:10.0 
0.05 1:3.0 2:3.0 3:5.0 4:7.0 5:3.0 6:4.0 
0.05 1:2.0 2:2.0 3:7.0 4:7.0 5:4.0 6:10.0 
0.05 1:2.0 2:2.0 3:7.0 4:7.0 5:4.0 6:4.0 
0.05 1:2.0 2:2.0 3:5.0 4:7.0 5:2.0 6:10.0 
0.05 1:3.0 2:3.0 3:5.0 4:6.0 5:4.0 6:10.0 
0.05 1:2.0 2:3.0 3:6.0 4:7.0 5:2.0 6:4.0 
0.05 1:3.0 2:2.0 3:7.0 4:7.0 5:2.0 6:7.0 
0.05 1:2.0 2:3.0 3:5.0 4:7.0 5:3.0 6:4.0 
0.05 1:2.0 2:2.0 3:5.0 4:7.0 5:2.0 6:4.0 
0.05 1:3.0 2:3.0 3:7.0 4:5.0 5:2.0 6:7.0 
0.035335811797619535 1:3.0 2:3.0 3:7.0 4:3.0 5:2.0 6:9.0 
0.05 1:3.0 2:2.0 3:5.0 4:3.0 5:2.0 6:7.0 
0.05 1:3.0 2:2.0 3:7.0 4:6.0 5:4.0 6:10.0 
0.05 1:2.0 2:3.0 3:5.0 4:3.0 5:4.0 6:4.0 
0.05 1:2.0 2:2.0 3:5.0 4:7.0 5:3.0 6:4.0 
0.03648327215883358 1:3.0 2:3.0 3:5.0 4:3.0 5:2.0 6:6.0 
0.05 1:3.0 2:2.0 3:6.0 4:3.0 5:4.0 6:4.0 
0.021623673742501723 1:2.0 2:2.0 3:7.0 4:3.0 5:4.0 6:8.0 
0.05 1:2.0 2:3.0 3:7.0 4:3.0 5:4.0 6:7.0 
0.05 1:3.0 2:3.0 3:7.0 4:3.0 5:2.0 6:4.0 
0.05 1:2.0 2:2.0 3:5.0 4:7.0 5:4.0 6:4.0 
0.04659252683261429 1:2.0 2:3.0 3:7.0 4:3.0 5:2.0 6:8.0 
0.05 1:3.0 2:2.0 3:7.0 4:3.0 5:4.0 6:10.0 
0.05 1:3.0 2:2.0 3:7.0 4:7.0 5:2.0 6:4.0 
0.05 1:3.0 2:2.0 3:5.0 4:7.0 5:2.0 6:8.0 
0.05 1:3.0 2:2.0 3:5.0 4:7.0 5:4.0 6:4.0 
0.05 1:3.0 2:2.0 3:5.0 4:7.0 5:2.0 6:7.0 
0.05 1:2.0 2:3.0 3:5.0 4:3.0 5:2.0 6:10.0 
0.05 1:2.0 2:3.0 3:7.0 4:5.0 5:4.0 6:7.0 
0.05 1:3.0 2:3.0 3:7.0 4:3.0 5:2.0 6:4.0 
0.05 1:3.0 2:3.0 3:7.0 4:3.0 5:4.0 6:10.0 
0.05 1:3.0 2:3.0 3:7.0 4:7.0 5:4.0 6:7.0 
0.009500377675146051 1:3.0 2:3.0 3:5.0 4:7.0 5:4.0 6:7.0 
0.05 1:2.0 2:3.0 3:7.0 4:5.0 5:2.0 6:7.0 
0.05 1:2.0 2:2.0 3:5.0 4:4.0 5:4.0 6:10.0 
0.05 1:3.0 2:3.0 3:7.0 4:3.0 5:4.0 6:7.0 
0.045099527175820824 1:2.0 2:2.0 3:7.0 4:6.0 5:2.0 6:7.0 
0.05 1:3.0 2:3.0 3:7.0 4:7.0 5:4.0 6:8.0 
0.05 1:3.0 2:3.0 3:5.0 4:5.0 5:2.0 6:8.0 
0.05 1:3.0 2:3.0 3:7.0 4:3.0 5:2.0 6:4.0 
0.05 1:3.0 2:3.0 3:7.0 4:6.0 5:4.0 6:10.0 
0.05 1:2.0 2:3.0 3:5.0 4:7.0 5:4.0 6:4.0 
0.05 1:3.0 2:3.0 3:7.0 4:5.0 5:2.0 6:7.0 
0.05 1:3.0 2:3.0 3:5.0 4:3.0 5:4.0 6:4.0 
0.05 1:2.0 2:2.0 3:5.0 4:3.0 5:2.0 6:5.0 
0.05 1:3.0 2:3.0 3:5.0 4:3.0 5:2.0 6:8.0 
0.026162734614171877 1:3.0 2:2.0 3:5.0 4:3.0 5:4.0 6:6.0 
0.05 1:2.0 2:3.0 3:5.0 4:4.0 5:2.0 6:4.0 
0.05 1:2.0 2:3.0 3:5.0 4:3.0 5:4.0 6:10.0 
0.05 1:2.0 2:2.0 3:5.0 4:7.0 5:2.0 6:4.0 
0.05 1:2.0 2:3.0 3:7.0 4:3.0 5:2.0 6:10.0 
0.010469011187481326 1:3.0 2:3.0 3:7.0 4:7.0 5:2.0 6:8.0 
0.05 1:2.0 2:3.0 3:5.0 4:7.0 5:2.0 6:7.0 
0.05 1:2.0 2:3.0 3:7.0 4:3.0 5:2.0 6:10.0 
0.05 1:2.0 2:3.0 3:5.0 4:3.0 5:4.0 6:8.0 
0.05 1:2.0 2:3.0 3:5.0 4:3.0 5:4.0 6:5.0 
0.05 1:2.0 2:2.0 3:5.0 4:4.0 5:4.0 6:4.0 
0.05 1:2.0 2:2.0 3:5.0 4:4.0 5:2.0 6:10.0 
0.05 1:2.0 2:2.0 3:5.0 4:4.0 5:2.0 6:10.0 
0.05 1:3.0 2:2.0 3:7.0 4:7.0 5:4.0 6:4.0 
0.05 1:3.0 2:3.0 3:7.0 4:3.0 5:2.0 6:10.0 
0.05 1:2.0 2:2.0 3:7.0 4:4.0 5:4.0 6:10.0 
0.05 1:2.0 2:3.0 3:5.0 4:3.0 5:2.0 6:4.0 
0.05 1:2.0 2:3.0 3:5.0 4:3.0 5:3.0 6:4.0 
0.05 1:2.0 2:3.0 3:5.0 4:7.0 5:4.0 6:4.0 
0.05 1:2.0 2:3.0 3:5.0 4:3.0 5:4.0 6:5.0 
0.05 1:2.0 2:2.0 3:5.0 4:7.0 5:2.0 6:7.0 
0.05 1:2.0 2:2.0 3:7.0 4:3.0 5:4.0 6:10.0 
0.009427285158173548 1:3.0 2:2.0 3:7.0 4:3.0 5:3.0 6:4.0 
0.05 1:3.0 2:3.0 3:7.0 4:3.0 5:4.0 6:10.0 
0.05 1:2.0 2:3.0 3:5.0 4:7.0 5:4.0 6:4.0 
0.05 1:2.0 2:3.0 3:7.0 4:7.0 5:4.0 6:10.0 
0.05 1:2.0 2:3.0 3:5.0 4:7.0 5:4.0 6:10.0 
0.05 1:3.0 2:2.0 3:5.0 4:3.0 5:4.0 6:5.0 
0.05 1:3.0 2:3.0 3:5.0 4:7.0 5:2.0 6:4.0 
0.05 1:3.0 2:2.0 3:5.0 4:3.0 5:2.0 6:8.0 
0.05 1:2.0 2:3.0 3:5.0 4:3.0 5:3.0 6:4.0 
0.05 1:2.0 2:2.0 3:7.0 4:3.0 5:4.0 6:7.0 
0.002776058395367634 1:3.0 2:2.0 3:5.0 4:7.0 5:4.0 6:7.0 
0.05 1:3.0 2:2.0 3:6.0 4:7.0 5:2.0 6:4.0 
0.05 1:3.0 2:3.0 3:5.0 4:7.0 5:2.0 6:10.0 
0.05 1:2.0 2:2.0 3:5.0 4:7.0 5:2.0 6:4.0 
0.05 1:2.0 2:3.0 3:5.0 4:7.0 5:4.0 6:5.0 
0.02506131416108819 1:2.0 2:2.0 3:7.0 4:4.0 5:2.0 6:10.0 
0.05 1:3.0 2:3.0 3:5.0 4:4.0 5:4.0 6:10.0 
0.05 1:2.0 2:3.0 3:7.0 4:7.0 5:4.0 6:4.0 
0.05 1:2.0 2:2.0 3:5.0 4:7.0 5:3.0 6:4.0 
0.05 1:3.0 2:3.0 3:5.0 4:3.0 5:4.0 6:6.0 
0.05 1:3.0 2:2.0 3:5.0 4:3.0 5:4.0 6:7.0 
0.05 1:3.0 2:3.0 3:5.0 4:7.0 5:4.0 6:4.0 
0.05 1:2.0 2:3.0 3:7.0 4:3.0 5:2.0 6:4.0 
0.0047874372574852045 1:2.0 2:2.0 3:7.0 4:6.0 5:2.0 6:10.0 
0.05 1:3.0 2:3.0 3:6.0 4:3.0 5:2.0 6:4.0 
0.023622997641972697 1:2.0 2:2.0 3:5.0 4:5.0 5:4.0 6:8.0 
0.05 1:2.0 2:3.0 3:7.0 4:7.0 5:4.0 6:10.0 
0.05 1:2.0 2:2.0 3:7.0 4:3.0 5:4.0 6:8.0 
0.05 1:3.0 2:2.0 3:7.0 4:3.0 5:4.0 6:4.0 
0.05 1:2.0 2:3.0 3:7.0 4:3.0 5:2.0 6:4.0 
0.05 1:2.0 2:3.0 3:7.0 4:7.0 5:2.0 6:7.0 
0.05 1:2.0 2:3.0 3:7.0 4:3.0 5:2.0 6:8.0 
0.05 1:3.0 2:3.0 3:5.0 4:3.0 5:4.0 6:7.0 
0.05 1:3.0 2:2.0 3:7.0 4:3.0 5:2.0 6:9.0 
0.05 1:2.0 2:3.0 3:5.0 4:3.0 5:4.0 6:8.0 
0.05 1:2.0 2:2.0 3:5.0 4:7.0 5:2.0 6:10.0 
0.05 1:2.0 2:3.0 3:5.0 4:4.0 5:4.0 6:4.0 
0.05 1:3.0 2:3.0 3:7.0 4:7.0 5:4.0 6:10.0 
0.05 1:3.0 2:2.0 3:5.0 4:3.0 5:2.0 6:4.0 
0.05 1:2.0 2:2.0 3:5.0 4:3.0 5:2.0 6:7.0 
0.05 1:3.0 2:2.0 3:6.0 4:3.0 5:4.0 6:4.0 
0.05 1:3.0 2:2.0 3:5.0 4:4.0 5:4.0 6:4.0 
0.05 1:2.0 2:3.0 3:7.0 4:6.0 5:2.0 6:7.0 
0.05 1:2.0 2:3.0 3:5.0 4:3.0 5:2.0 6:10.0 
0.05 1:3.0 2:2.0 3:5.0 4:7.0 5:2.0 6:4.0 
0.024901153110608823 1:2.0 2:2.0 3:7.0 4:7.0 5:2.0 6:8.0 
0.05 1:2.0 2:2.0 3:5.0 4:3.0 5:4.0 6:4.0 
0.05 1:2.0 2:2.0 3:5.0 4:7.0 5:4.0 6:10.0 
0.05 1:2.0 2:3.0 3:7.0 4:7.0 5:4.0 6:7.0 
0.05 1:3.0 2:2.0 3:6.0 4:3.0 5:2.0 6:4.0 
0.05 1:2.0 2:2.0 3:7.0 4:6.0 5:2.0 6:10.0 
0.05 1:2.0 2:3.0 3:7.0 4:3.0 5:4.0 6:8.0 
0.034121222573271555 1:2.0 2:3.0 3:7.0 4:7.0 5:2.0 6:6.0 
0.05 1:3.0 2:2.0 3:7.0 4:7.0 5:2.0 6:10.0 
0.05 1:3.0 2:2.0 3:7.0 4:7.0 5:4.0 6:8.0 
0.05 1:3.0 2:3.0 3:5.0 4:3.0 5:2.0 6:4.0 
0.05 1:2.0 2:3.0 3:5.0 4:4.0 5:4.0 6:4.0 
0.05 1:2.0 2:3.0 3:5.0 4:7.0 5:2.0 6:10.0 
0.047482437081557194 1:2.0 2:3.0 3:5.0 4:4.0 5:4.0 6:10.0 
0.05 1:3.0 2:2.0 3:7.0 4:4.0 5:2.0 6:10.0 
0.05 1:3.0 2:3.0 3:5.0 4:7.0 5:3.0 6:4.0 
0.05 1:3.0 2:3.0 3:5.0 4:7.0 5:4.0 6:4.0 
0.05 1:2.0 2:2.0 3:7.0 4:7.0 5:2.0 6:4.0 
0.05 1:2.0 2:2.0 3:5.0 4:7.0 5:4.0 6:10.0 
0.05 1:3.0 2:3.0 3:7.0 4:3.0 5:2.0 6:9.0 
0.046853692460324205 1:2.0 2:3.0 3:7.0 4:4.0 5:2.0 6:10.0 
0.05 1:3.0 2:2.0 3:5.0 4:3.0 5:4.0 6:5.0 
0.05 1:3.0 2:3.0 3:5.0 4:7.0 5:4.0 6:5.0 
0.05 1:3.0 2:3.0 3:5.0 4:7.0 5:2.0 6:4.0 
0.05 1:3.0 2:3.0 3:7.0 4:7.0 5:4.0 6:4.0 
0.05 1:2.0 2:3.0 3:7.0 4:3.0 5:4.0 6:10.0 
0.05 1:2.0 2:3.0 3:7.0 4:5.0 5:4.0 6:7.0 
0.05 1:2.0 2:3.0 3:7.0 4:7.0 5:2.0 6:6.0 
0.05 1:3.0 2:3.0 3:7.0 4:3.0 5:4.0 6:7.0 
0.05 1:2.0 2:3.0 3:5.0 4:3.0 5:4.0 6:10.0 
0.05 1:3.0 2:3.0 3:5.0 4:3.0 5:4.0 6:7.0 
0.05 1:2.0 2:3.0 3:5.0 4:7.0 5:3.0 6:4.0 
0.05 1:2.0 2:2.0 3:5.0 4:7.0 5:4.0 6:7.0 
0.008532070667051963 1:3.0 2:2.0 3:5.0 4:5.0 5:2.0 6:8.0 
0.05 1:2.0 2:2.0 3:7.0 4:7.0 5:2.0 6:7.0 
0.03954162417771833 1:2.0 2:2.0 3:5.0 4:7.0 5:2.0 6:8.0 
0.05 1:3.0 2:2.0 3:5.0 4:3.0 5:4.0 6:8.0 
0.05 1:3.0 2:2.0 3:5.0 4:7.0 5:4.0 6:5.0 
0.05 1:2.0 2:2.0 3:7.0 4:4.0 5:2.0 6:10.0 
0.036806904096124346 1:2.0 2:3.0 3:7.0 4:4.0 5:4.0 6:10.0 
0.05 1:2.0 2:3.0 3:7.0 4:7.0 5:2.0 6:10.0 
0.03212655602944207 1:2.0 2:3.0 3:7.0 4:6.0 5:4.0 6:7.0 
0.05 1:2.0 2:3.0 3:7.0 4:3.0 5:4.0 6:4.0 
0.05 1:3.0 2:3.0 3:7.0 4:3.0 5:2.0 6:9.0 
0.05 1:2.0 2:3.0 3:5.0 4:7.0 5:4.0 6:8.0 
0.027353527320754883 1:3.0 2:2.0 3:5.0 4:6.0 5:2.0 6:10.0 
0.05 1:2.0 2:2.0 3:7.0 4:7.0 5:2.0 6:4.0 
0.05 1:2.0 2:3.0 3:6.0 4:3.0 5:2.0 6:4.0 
0.05 1:2.0 2:3.0 3:5.0 4:3.0 5:2.0 6:10.0 
0.003490449950374449 1:3.0 2:3.0 3:7.0 4:3.0 5:2.0 6:7.0 
0.02469723973492896 1:3.0 2:3.0 3:5.0 4:7.0 5:4.0 6:8.0 
0.05 1:2.0 2:2.0 3:5.0 4:4.0 5:2.0 6:10.0 
0.05 1:3.0 2:3.0 3:5.0 4:3.0 5:2.0 6:7.0 
0.03983756213069441 1:2.0 2:2.0 3:5.0 4:5.0 5:2.0 6:8.0 
0.005468321846666105 1:2.0 2:3.0 3:5.0 4:3.0 5:4.0 6:7.0 
0.05 1:3.0 2:2.0 3:7.0 4:7.0 5:2.0 6:10.0 
0.05 1:3.0 2:2.0 3:5.0 4:7.0 5:4.0 6:10.0 
0.008462530649997744 1:2.0 2:3.0 3:5.0 4:5.0 5:4.0 6:8.0 
0.05 1:3.0 2:2.0 3:5.0 4:6.0 5:4.0 6:10.0 
0.05 1:3.0 2:2.0 3:5.0 4:7.0 5:4.0 6:5.0 
0.05 1:3.0 2:3.0 3:7.0 4:3.0 5:4.0 6:7.0 
0.02918671633957843 1:2.0 2:2.0 3:6.0 4:7.0 5:2.0 6:4.0 
0.05 1:3.0 2:3.0 3:7.0 4:7.0 5:2.0 6:7.0 
0.05 1:3.0 2:3.0 3:5.0 4:7.0 5:2.0 6:5.0 
0.012341898759942238 1:3.0 2:3.0 3:7.0 4:4.0 5:4.0 6:10.0 
0.05 1:3.0 2:3.0 3:7.0 4:7.0 5:4.0 6:4.0 
0.05 1:2.0 2:2.0 3:5.0 4:4.0 5:2.0 6:10.0 
0.05 1:3.0 2:3.0 3:7.0 4:5.0 5:2.0 6:7.0 
0.05 1:3.0 2:3.0 3:7.0 4:4.0 5:4.0 6:10.0 
0.05 1:3.0 2:3.0 3:7.0 4:7.0 5:2.0 6:10.0 
0.05 1:3.0 2:2.0 3:6.0 4:3.0 5:2.0 6:4.0 
0.05 1:3.0 2:2.0 3:7.0 4:5.0 5:4.0 6:7.0 
0.0016711494521438025 1:2.0 2:3.0 3:5.0 4:3.0 5:2.0 6:9.0 
0.05 1:3.0 2:2.0 3:7.0 4:7.0 5:4.0 6:8.0 
0.05 1:3.0 2:3.0 3:5.0 4:4.0 5:2.0 6:4.0 
0.05 1:3.0 2:2.0 3:7.0 4:7.0 5:2.0 6:7.0 
0.05 1:3.0 2:2.0 3:7.0 4:3.0 5:2.0 6:7.0 
0.05 1:3.0 2:3.0 3:5.0 4:3.0 5:2.0 6:5.0 
0.05 1:2.0 2:2.0 3:5.0 4:7.0 5:2.0 6:5.0 
0.05 1:3.0 2:2.0 3:5.0 4:3.0 5:4.0 6:5.0 
0.012820656823194712 1:2.0 2:2.0 3:7.0 4:3.0 5:4.0 6:5.0 
0.030011400719014654 1:3.0 2:2.0 3:7.0 4:6.0 5:2.0 6:10.0 
0.05 1:2.0 2:3.0 3:5.0 4:7.0 5:4.0 6:10.0 
0.05 1:3.0 2:3.0 3:7.0 4:3.0 5:2.0 6:7.0 
0.05 1:3.0 2:2.0 3:7.0 4:3.0 5:3.0 6:4.0 
0.05 1:2.0 2:3.0 3:7.0 4:3.0 5:4.0 6:10.0 
0.05 1:2.0 2:3.0 3:5.0 4:7.0 5:2.0 6:8.0 
0.05 1:2.0 2:3.0 3:5.0 4:5.0 5:4.0 6:8.0 
0.046594419968592274 1:2.0 2:3.0 3:7.0 4:7.0 5:2.0 6:9.0 
0.05 1:2.0 2:3.0 3:5.0 4:6.0 5:4.0 6:10.0 
0.05 1:3.0 2:3.0 3:7.0 4:7.0 5:4.0 6:4.0 
0.05 1:2.0 2:2.0 3:6.0 4:3.0 5:4.0 6:4.0 
0.05 1:2.0 2:3.0 3:7.0 4:7.0 5:4.0 6:8.0 
0.05 1:2.0 2:3.0 3:7.0 4:6.0 5:2.0 6:10.0 
0.05 1:3.0 2:3.0 3:5.0 4:6.0 5:2.0 6:4.0 
0.05 1:3.0 2:3.0 3:5.0 4:3.0 5:2.0 6:9.0 
0.05 1:2.0 2:2.0 3:7.0 4:6.0 5:2.0 6:10.0 
0.05 1:2.0 2:2.0 3:5.0 4:4.0 5:2.0 6:4.0 
0.01921134706217481 1:3.0 2:2.0 3:7.0 4:7.0 5:4.0 6:7.0 
0.026254025687450742 1:2.0 2:3.0 3:5.0 4:3.0 5:4.0 6:8.0 
0.05 1:3.0 2:2.0 3:5.0 4:7.0 5:2.0 6:7.0 
0.05 1:3.0 2:2.0 3:7.0 4:4.0 5:4.0 6:10.0 
0.05 1:2.0 2:2.0 3:5.0 4:3.0 5:3.0 6:4.0 
0.009485062118306097 1:3.0 2:3.0 3:5.0 4:7.0 5:2.0 6:6.0 
0.05 1:2.0 2:2.0 3:7.0 4:7.0 5:4.0 6:7.0 
0.05 1:2.0 2:3.0 3:7.0 4:5.0 5:4.0 6:8.0 
0.05 1:2.0 2:2.0 3:5.0 4:7.0 5:4.0 6:4.0 
0.04977780835252844 1:3.0 2:3.0 3:5.0 4:6.0 5:2.0 6:10.0 
0.05 1:2.0 2:3.0 3:6.0 4:3.0 5:4.0 6:4.0 
0.05 1:3.0 2:2.0 3:7.0 4:7.0 5:2.0 6:7.0 
0.05 1:3.0 2:3.0 3:5.0 4:3.0 5:2.0 6:4.0 
0.05 1:2.0 2:3.0 3:7.0 4:3.0 5:2.0 6:4.0 
0.05 1:2.0 2:2.0 3:5.0 4:3.0 5:4.0 6:5.0 
0.05 1:3.0 2:3.0 3:5.0 4:4.0 5:2.0 6:10.0 
0.05 1:2.0 2:2.0 3:5.0 4:7.0 5:2.0 6:10.0 
0.05 1:2.0 2:2.0 3:7.0 4:7.0 5:2.0 6:10.0 
0.05 1:3.0 2:3.0 3:5.0 4:7.0 5:4.0 6:10.0 
0.05 1:3.0 2:3.0 3:5.0 4:4.0 5:2.0 6:10.0 
0.016436017974762063 1:3.0 2:2.0 3:7.0 4:7.0 5:4.0 6:9.0 
0.05 1:3.0 2:2.0 3:5.0 4:3.0 5:2.0 6:9.0 
0.05 1:3.0 2:2.0 3:5.0 4:7.0 5:4.0 6:4.0 
0.05 1:3.0 2:2.0 3:5.0 4:6.0 5:4.0 6:10.0 
0.05 1:2.0 2:3.0 3:5.0 4:7.0 5:2.0 6:4.0 
0.05 1:2.0 2:3.0 3:5.0 4:3.0 5:2.0 6:9.0 
0.009206981742754257 1:2.0 2:2.0 3:5.0 4:6.0 5:2.0 6:10.0 
0.05 1:2.0 2:2.0 3:5.0 4:7.0 5:4.0 6:10.0 
0.05 1:2.0 2:3.0 3:5.0 4:3.0 5:4.0 6:7.0 
0.05 1:2.0 2:2.0 3:7.0 4:3.0 5:4.0 6:7.0 
0.05 1:2.0 2:2.0 3:7.0 4:5.0 5:4.0 6:7.0 
0.05 1:3.0 2:2.0 3:7.0 4:7.0 5:2.0 6:10.0 
0.03846118439814123 1:2.0 2:2.0 3:5.0 4:3.0 5:4.0 6:8.0 
0.05 1:2.0 2:3.0 3:5.0 4:4.0 5:2.0 6:4.0 
0.05 1:2.0 2:3.0 3:7.0 4:3.0 5:4.0 6:4.0 
0.05 1:2.0 2:3.0 3:7.0 4:7.0 5:2.0 6:9.0 
0.05 1:3.0 2:3.0 3:7.0 4:7.0 5:2.0 6:7.0 
0.05 1:2.0 2:2.0 3:7.0 4:4.0 5:2.0 6:10.0 
0.05 1:3.0 2:3.0 3:5.0 4:6.0 5:2.0 6:10.0 
0.05 1:3.0 2:2.0 3:5.0 4:7.0 5:4.0 6:10.0 
0.05 1:2.0 2:2.0 3:5.0 4:3.0 5:2.0 6:4.0 
0.05 1:3.0 2:2.0 3:7.0 4:7.0 5:4.0 6:10.0 
0.05 1:3.0 2:2.0 3:5.0 4:3.0 5:4.0 6:10.0 
0.05 1:3.0 2:3.0 3:5.0 4:6.0 5:2.0 6:4.0 
0.05 1:3.0 2:3.0 3:5.0 4:3.0 5:2.0 6:5.0 
0.05 1:2.0 2:3.0 3:5.0 4:3.0 5:4.0 6:4.0 
0.05 1:2.0 2:2.0 3:5.0 4:3.0 5:4.0 6:10.0 
0.05 1:2.0 2:2.0 3:7.0 4:7.0 5:4.0 6:8.0 
0.05 1:2.0 2:2.0 3:7.0 4:3.0 5:2.0 6:10.0 
0.05 1:3.0 2:2.0 3:5.0 4:4.0 5:4.0 6:4.0 
0.05 1:3.0 2:2.0 3:7.0 4:7.0 5:2.0 6:4.0 
0.05 1:2.0 2:2.0 3:5.0 4:3.0 5:4.0 6:10.0 
0.05 1:2.0 2:2.0 3:7.0 4:5.0 5:2.0 6:7.0 
0.04827811614593601 1:2.0 2:3.0 3:7.0 4:3.0 5:2.0 6:8.0 
0.05 1:2.0 2:3.0 3:7.0 4:7.0 5:2.0 6:6.0 
0.05 1:2.0 2:2.0 3:5.0 4:7.0 5:2.0 6:4.0 
0.05 1:2.0 2:2.0 3:5.0 4:7.0 5:4.0 6:4.0 
0.004698420362736704 1:2.0 2:3.0 3:5.0 4:7.0 5:2.0 6:6.0 
0.05 1:2.0 2:3.0 3:5.0 4:3.0 5:4.0 6:10.0 
0.05 1:2.0 2:3.0 3:7.0 4:7.0 5:4.0 6:7.0 
0.05 1:3.0 2:3.0 3:5.0 4:7.0 5:2.0 6:8.0 
0.05 1:3.0 2:2.0 3:5.0 4:7.0 5:4.0 6:7.0 
0.05 1:3.0 2:3.0 3:7.0 4:3.0 5:2.0 6:4.0 
0.05 1:2.0 2:3.0 3:5.0 4:7.0 5:2.0 6:7.0 
0.05 1:3.0 2:2.0 3:7.0 4:3.0 5:4.0 6:4.0 
0.05 1:3.0 2:3.0 3:7.0 4:3.0 5:4.0 6:4.0 
0.05 1:3.0 2:2.0 3:6.0 4:3.0 5:4.0 6:4.0 
0.017961800858152844 1:2.0 2:2.0 3:7.0 4:6.0 5:4.0 6:7.0 
0.05 1:3.0 2:3.0 3:5.0 4:7.0 5:2.0 6:4.0 
0.05 1:3.0 2:2.0 3:7.0 4:3.0 5:2.0 6:9.0 
0.04862511778921966 1:2.0 2:2.0 3:5.0 4:3.0 5:4.0 6:9.0 
0.05 1:3.0 2:2.0 3:7.0 4:3.0 5:2.0 6:7.0 
0.05 1:3.0 2:2.0 3:7.0 4:3.0 5:4.0 6:7.0 
0.05 1:2.0 2:3.0 3:5.0 4:7.0 5:2.0 6:8.0 
0.05 1:3.0 2:2.0 3:7.0 4:7.0 5:4.0 6:10.0 
0.05 1:2.0 2:2.0 3:5.0 4:3.0 5:4.0 6:8.0 
0.05 1:2.0 2:2.0 3:5.0 4:7.0 5:2.0 6:10.0 
0.02114757145606984 1:2.0 2:3.0 3:7.0 4:4.0 5:2.0 6:10.0 
0.05 1:3.0 2:2.0 3:5.0 4:3.0 5:2.0 6:5.0 
0.05 1:3.0 2:3.0 3:7.0 4:3.0 5:2.0 6:4.0 
0.05 1:3.0 2:2.0 3:7.0 4:7.0 5:4.0 6:4.0 
0.05 1:2.0 2:3.0 3:5.0 4:7.0 5:4.0 6:7.0 
0.05 1:2.0 2:2.0 3:7.0 4:7.0 5:2.0 6:4.0 
0.05 1:2.0 2:3.0 3:5.0 4:3.0 5:2.0 6:7.0 
0.05 1:2.0 2:2.0 3:7.0 4:7.0 5:4.0 6:4.0 
0.05 1:2.0 2:2.0 3:7.0 4:4.0 5:2.0 6:10.0 
0.05 1:3.0 2:3.0 3:5.0 4:3.0 5:2.0 6:7.0 
0.05 1:3.0 2:3.0 3:5.0 4:7.0 5:2.0 6:5.0 
0.05 1:3.0 2:2.0 3:5.0 4:7.0 5:2.0 6:5.0 
0.033683613090632426 1:3.0 2:2.0 3:7.0 4:6.0 5:4.0 6:10.0 
0.05 1:3.0 2:3.0 3:5.0 4:3.0 5:4.0 6:5.0 
0.05 1:3.0 2:2.0 3:7.0 4:7.0 5:4.0 6:4.0 
0.05 1:3.0 2:3.0 3:7.0 4:7.0 5:4.0 6:7.0 
0.05 1:2.0 2:3.0 3:5.0 4:3.0 5:4.0 6:7.0 
0.05 1:3.0 2:3.0 3:7.0 4:4.0 5:2.0 6:10.0 
0.05 1:2.0 2:2.0 3:5.0 4:3.0 5:2.0 6:7.0 
0.018936641464194676 1:3.0 2:2.0 3:7.0 4:3.0 5:4.0 6:9.0 
0.02120874057186956 1:2.0 2:2.0 3:5.0 4:3.0 5:2.0 6:9.0 
0.018164474410438534 1:2.0 2:2.0 3:5.0 4:3.0 5:2.0 6:9.0 
0.05 1:2.0 2:3.0 3:5.0 4:4.0 5:4.0 6:4.0 
0.05 1:4.0 2:4.0 3:3.0 4:9.0 5:1.0 6:1.0 
0.05 1:1.0 2:4.0 3:1.0 4:8.0 5:1.0 6:2.0 
0.05 1:5.0 2:4.0 3:3.0 4:2.0 5:5.0 6:2.0 
0.05 1:5.0 2:1.0 3:1.0 4:8.0 5:1.0 6:3.0 
0.05 1:5.0 2:5.0 3:2.0 4:9.0 5:5.0 6:3.0 
0.05 1:4.0 2:1.0 3:3.0 4:9.0 5:6.0 6:3.0 
0.05 1:1.0 2:5.0 3:1.0 4:1.0 5:5.0 6:2.0 
0.05 1:4.0 2:4.0 3:3.0 4:8.0 5:1.0 6:3.0 
0.05 1:4.0 2:5.0 3:4.0 4:9.0 5:1.0 6:3.0 
0.05 1:1.0 2:4.0 3:3.0 4:9.0 5:5.0 6:3.0 
0.05 1:5.0 2:4.0 3:1.0 4:8.0 5:1.0 6:1.0 
0.05 1:5.0 2:4.0 3:2.0 4:9.0 5:1.0 6:1.0 
0.05 1:4.0 2:4.0 3:2.0 4:10.0 5:5.0 6:3.0 
0.05 1:1.0 2:1.0 3:3.0 4:2.0 5:1.0 6:2.0 
0.05 1:5.0 2:5.0 3:3.0 4:9.0 5:1.0 6:2.0 
0.05 1:5.0 2:1.0 3:4.0 4:1.0 5:1.0 6:3.0 
0.05 1:5.0 2:4.0 3:2.0 4:8.0 5:6.0 6:2.0 
0.05 1:1.0 2:4.0 3:2.0 4:8.0 5:6.0 6:3.0 
0.05 1:4.0 2:4.0 3:2.0 4:8.0 5:5.0 6:1.0 
0.05 1:4.0 2:4.0 3:4.0 4:1.0 5:1.0 6:2.0 
0.05 1:5.0 2:4.0 3:2.0 4:9.0 5:5.0 6:3.0 
0.05 1:1.0 2:5.0 3:3.0 4:1.0 5:6.0 6:2.0 
0.05 1:4.0 2:5.0 3:2.0 4:9.0 5:5.0 6:1.0 
0.05 1:4.0 2:5.0 3:4.0 4:2.0 5:5.0 6:1.0 
0.05 1:1.0 2:1.0 3:2.0 4:1.0 5:6.0 6:2.0 
0.05 1:1.0 2:4.0 3:2.0 4:2.0 5:5.0 6:3.0 
0.05 1:4.0 2:5.0 3:1.0 4:2.0 5:5.0 6:2.0 
0.05 1:1.0 2:5.0 3:3.0 4:10.0 5:6.0 6:2.0 
0.05 1:4.0 2:1.0 3:2.0 4:2.0 5:5.0 6:3.0 
0.05 1:4.0 2:1.0 3:1.0 4:2.0 5:1.0 6:3.0 
0.05 1:5.0 2:5.0 3:4.0 4:1.0 5:1.0 6:2.0 
0.05 1:4.0 2:5.0 3:1.0 4:10.0 5:1.0 6:2.0 
0.05 1:4.0 2:1.0 3:2.0 4:10.0 5:1.0 6:3.0 
0.05 1:1.0 2:4.0 3:4.0 4:2.0 5:5.0 6:3.0 
0.05 1:5.0 2:4.0 3:4.0 4:8.0 5:5.0 6:1.0 
0.05 1:5.0 2:5.0 3:2.0 4:10.0 5:6.0 6:1.0 
0.05 1:4.0 2:1.0 3:4.0 4:1.0 5:5.0 6:3.0 
0.05 1:4.0 2:5.0 3:2.0 4:1.0 5:5.0 6:2.0 
0.05 1:4.0 2:5.0 3:1.0 4:8.0 5:1.0 6:2.0 
0.05 1:4.0 2:1.0 3:3.0 4:10.0 5:6.0 6:1.0 
0.05 1:4.0 2:4.0 3:4.0 4:8.0 5:6.0 6:2.0 
0.05 1:5.0 2:1.0 3:3.0 4:9.0 5:6.0 6:3.0 
0.05 1:4.0 2:1.0 3:3.0 4:8.0 5:5.0 6:3.0 
0.05 1:4.0 2:4.0 3:4.0 4:2.0 5:1.0 6:3.0 
0.05 1:4.0 2:1.0 3:1.0 4:1.0 5:1.0 6:1.0 
0.05 1:4.0 2:5.0 3:4.0 4:10.0 5:5.0 6:2.0 
0.05 1:5.0 2:4.0 3:1.0 4:8.0 5:1.0 6:3.0 
0.05 1:5.0 2:4.0 3:2.0 4:2.0 5:6.0 6:2.0 
0.05 1:4.0 2:1.0 3:3.0 4:1.0 5:1.0 6:3.0 
0.05 1:4.0 2:1.0 3:2.0 4:9.0 5:6.0 6:2.0 
0.05 1:5.0 2:4.0 3:4.0 4:10.0 5:1.0 6:1.0 
0.05 1:4.0 2:5.0 3:4.0 4:9.0 5:1.0 6:3.0 
0.05 1:1.0 2:4.0 3:1.0 4:9.0 5:1.0 6:3.0 
0.05 1:5.0 2:1.0 3:3.0 4:9.0 5:6.0 6:3.0 
0.05 1:4.0 2:5.0 3:1.0 4:2.0 5:5.0 6:1.0 
0.05 1:4.0 2:5.0 3:3.0 4:10.0 5:5.0 6:3.0 
0.05 1:4.0 2:1.0 3:3.0 4:1.0 5:5.0 6:1.0 
0.05 1:5.0 2:1.0 3:1.0 4:1.0 5:1.0 6:1.0 
0.05 1:4.0 2:4.0 3:4.0 4:10.0 5:6.0 6:3.0 
0.05 1:5.0 2:1.0 3:4.0 4:8.0 5:1.0 6:1.0 
0.05 1:4.0 2:4.0 3:4.0 4:8.0 5:1.0 6:1.0 
0.05 1:5.0 2:1.0 3:4.0 4:8.0 5:1.0 6:3.0 
0.05 1:5.0 2:5.0 3:3.0 4:9.0 5:1.0 6:2.0 
0.05 1:1.0 2:5.0 3:2.0 4:8.0 5:1.0 6:2.0 
0.05 1:1.0 2:4.0 3:3.0 4:8.0 5:6.0 6:3.0 
0.05 1:5.0 2:5.0 3:4.0 4:9.0 5:1.0 6:2.0 
0.05 1:1.0 2:5.0 3:1.0 4:10.0 5:6.0 6:3.0 
0.05 1:4.0 2:1.0 3:2.0 4:10.0 5:5.0 6:1.0 
0.05 1:1.0 2:5.0 3:4.0 4:9.0 5:5.0 6:1.0 
0.05 1:4.0 2:1.0 3:4.0 4:8.0 5:6.0 6:2.0 
0.05 1:5.0 2:1.0 3:1.0 4:10.0 5:6.0 6:3.0 
0.05 1:5.0 2:5.0 3:4.0 4:2.0 5:1.0 6:2.0 
0.05 1:5.0 2:5.0 3:2.0 4:2.0 5:1.0 6:1.0 
0.05 1:4.0 2:4.0 3:4.0 4:2.0 5:5.0 6:1.0 
0.05 1:4.0 2:5.0 3:1.0 4:10.0 5:5.0 6:3.0 
0.05 1:1.0 2:5.0 3:3.0 4:8.0 5:6.0 6:3.0 
0.05 1:1.0 2:4.0 3:2.0 4:2.0 5:5.0 6:3.0 
0.05 1:1.0 2:1.0 3:4.0 4:10.0 5:1.0 6:1.0 
0.05 1:5.0 2:1.0 3:1.0 4:10.0 5:1.0 6:1.0 
0.05 1:1.0 2:1.0 3:4.0 4:8.0 5:5.0 6:1.0 
0.05 1:5.0 2:1.0 3:3.0 4:10.0 5:1.0 6:3.0 
0.05 1:1.0 2:5.0 3:2.0 4:10.0 5:6.0 6:1.0 
0.05 1:5.0 2:5.0 3:1.0 4:1.0 5:6.0 6:3.0 
0.05 1:4.0 2:4.0 3:2.0 4:2.0 5:6.0 6:1.0 
0.05 1:1.0 2:4.0 3:4.0 4:2.0 5:6.0 6:2.0 
0.05 1:5.0 2:4.0 3:4.0 4:9.0 5:6.0 6:3.0 
0.05 1:1.0 2:1.0 3:1.0 4:2.0 5:1.0 6:3.0 
0.05 1:4.0 2:4.0 3:4.0 4:8.0 5:1.0 6:3.0 
0.05 1:1.0 2:5.0 3:2.0 4:8.0 5:5.0 6:3.0 
0.05 1:5.0 2:5.0 3:1.0 4:8.0 5:5.0 6:1.0 
0.05 1:5.0 2:1.0 3:4.0 4:10.0 5:5.0 6:3.0 
0.05 1:1.0 2:1.0 3:4.0 4:1.0 5:1.0 6:1.0 
0.05 1:4.0 2:1.0 3:3.0 4:2.0 5:5.0 6:1.0 
0.05 1:5.0 2:1.0 3:3.0 4:9.0 5:6.0 6:1.0 
0.05 1:4.0 2:4.0 3:1.0 4:1.0 5:6.0 6:1.0 
0.05 1:5.0 2:4.0 3:4.0 4:8.0 5:6.0 6:2.0 
0.05 1:4.0 2:5.0 3:3.0 4:2.0 5:5.0 6:2.0 
0.05 1:1.0 2:5.0 3:1.0 4:8.0 5:1.0 6:3.0 
0.05 1:5.0 2:5.0 3:4.0 4:1.0 5:1.0 6:1.0 
0.05 1:5.0 2:4.0 3:3.0 4:9.0 5:6.0 6:2.0 
0.05 1:5.0 2:1.0 3:3.0 4:1.0 5:5.0 6:2.0 
0.05 1:5.0 2:4.0 3:2.0 4:8.0 5:1.0 6:3.0 
0.05 1:1.0 2:4.0 3:2.0 4:10.0 5:6.0 6:1.0 
0.05 1:4.0 2:4.0 3:2.0 4:10.0 5:5.0 6:1.0 
0.05 1:5.0 2:1.0 3:4.0 4:10.0 5:6.0 6:3.0 
0.05 1:5.0 2:4.0 3:3.0 4:1.0 5:5.0 6:2.0 
0.05 1:4.0 2:4.0 3:4.0 4:2.0 5:1.0 6:3.0 
0.05 1:5.0 2:5.0 3:2.0 4:9.0 5:6.0 6:3.0 
0.05 1:1.0 2:1.0 3:1.0 4:9.0 5:1.0 6:2.0 
0.05 1:1.0 2:4.0 3:3.0 4:2.0 5:5.0 6:2.0 
0.05 1:5.0 2:1.0 3:4.0 4:2.0 5:6.0 6:2.0 
0.05 1:4.0 2:1.0 3:2.0 4:9.0 5:5.0 6:1.0 
0.05 1:4.0 2:1.0 3:2.0 4:9.0 5:6.0 6:2.0 
0.05 1:5.0 2:4.0 3:4.0 4:10.0 5:6.0 6:2.0 
0.05 1:1.0 2:5.0 3:2.0 4:2.0 5:5.0 6:1.0 
0.05 1:1.0 2:5.0 3:4.0 4:2.0 5:5.0 6:2.0 
0.05 1:1.0 2:5.0 3:1.0 4:10.0 5:5.0 6:2.0 
0.05 1:4.0 2:4.0 3:3.0 4:8.0 5:6.0 6:3.0 
0.05 1:4.0 2:4.0 3:2.0 4:10.0 5:6.0 6:1.0 
0.05 1:5.0 2:5.0 3:4.0 4:1.0 5:5.0 6:2.0 
0.05 1:5.0 2:5.0 3:3.0 4:1.0 5:1.0 6:2.0 
0.05 1:4.0 2:1.0 3:4.0 4:10.0 5:6.0 6:1.0 
0.05 1:1.0 2:5.0 3:4.0 4:8.0 5:1.0 6:2.0 
0.05 1:1.0 2:1.0 3:3.0 4:2.0 5:5.0 6:2.0 
0.05 1:5.0 2:5.0 3:2.0 4:2.0 5:1.0 6:2.0 
0.05 1:4.0 2:4.0 3:3.0 4:8.0 5:6.0 6:3.0 
0.05 1:5.0 2:5.0 3:3.0 4:9.0 5:1.0 6:1.0 
0.05 1:5.0 2:4.0 3:1.0 4:9.0 5:6.0 6:2.0 
0.05 1:1.0 2:1.0 3:2.0 4:9.0 5:1.0 6:2.0 
0.05 1:1.0 2:1.0 3:1.0 4:10.0 5:1.0 6:2.0 
0.05 1:4.0 2:4.0 3:2.0 4:1.0 5:5.0 6:1.0 
0.05 1:1.0 2:1.0 3:2.0 4:9.0 5:5.0 6:3.0 
0.05 1:4.0 2:4.0 3:1.0 4:1.0 5:6.0 6:1.0 
0.05 1:1.0 2:5.0 3:1.0 4:9.0 5:5.0 6:2.0 
0.05 1:1.0 2:1.0 3:2.0 4:1.0 5:6.0 6:2.0 
0.05 1:5.0 2:5.0 3:1.0 4:8.0 5:5.0 6:3.0 
0.05 1:4.0 2:1.0 3:3.0 4:8.0 5:6.0 6:3.0 
0.05 1:5.0 2:5.0 3:3.0 4:1.0 5:6.0 6:2.0 
0.05 1:5.0 2:1.0 3:3.0 4:8.0 5:6.0 6:3.0 
0.05 1:4.0 2:5.0 3:2.0 4:8.0 5:5.0 6:3.0 
0.05 1:1.0 2:4.0 3:3.0 4:8.0 5:1.0 6:2.0 
0.05 1:5.0 2:4.0 3:4.0 4:8.0 5:6.0 6:2.0 
0.05 1:1.0 2:5.0 3:1.0 4:9.0 5:5.0 6:2.0 
0.05 1:5.0 2:5.0 3:1.0 4:10.0 5:5.0 6:2.0 
0.05 1:4.0 2:4.0 3:4.0 4:1.0 5:6.0 6:2.0 
0.05 1:4.0 2:5.0 3:3.0 4:9.0 5:1.0 6:1.0 
0.05 1:1.0 2:1.0 3:4.0 4:9.0 5:5.0 6:3.0 
0.05 1:1.0 2:5.0 3:4.0 4:9.0 5:1.0 6:1.0 
0.05 1:5.0 2:4.0 3:3.0 4:10.0 5:6.0 6:1.0 
0.05 1:1.0 2:1.0 3:3.0 4:10.0 5:1.0 6:1.0 
0.05 1:1.0 2:4.0 3:3.0 4:10.0 5:1.0 6:2.0 
0.05 1:4.0 2:4.0 3:1.0 4:2.0 5:1.0 6:2.0 
0.05 1:5.0 2:1.0 3:1.0 4:2.0 5:6.0 6:1.0 
0.05 1:4.0 2:1.0 3:1.0 4:8.0 5:1.0 6:2.0 
0.05 1:1.0 2:1.0 3:2.0 4:1.0 5:6.0 6:1.0 
0.05 1:1.0 2:4.0 3:3.0 4:8.0 5:5.0 6:1.0 
0.05 1:4.0 2:5.0 3:3.0 4:10.0 5:5.0 6:3.0 
0.05 1:1.0 2:1.0 3:2.0 4:2.0 5:1.0 6:2.0 
0.05 1:1.0 2:4.0 3:2.0 4:10.0 5:1.0 6:3.0 
0.05 1:1.0 2:5.0 3:4.0 4:2.0 5:1.0 6:2.0 
0.05 1:4.0 2:4.0 3:4.0 4:8.0 5:6.0 6:1.0 
0.05 1:4.0 2:4.0 3:1.0 4:8.0 5:5.0 6:2.0 
0.05 1:4.0 2:5.0 3:4.0 4:1.0 5:6.0 6:3.0 
0.05 1:1.0 2:1.0 3:1.0 4:10.0 5:6.0 6:1.0 
0.05 1:5.0 2:1.0 3:2.0 4:9.0 5:1.0 6:3.0 
0.05 1:1.0 2:5.0 3:4.0 4:1.0 5:5.0 6:3.0 
0.05 1:4.0 2:5.0 3:2.0 4:1.0 5:5.0 6:1.0 
0.05 1:4.0 2:5.0 3:1.0 4:9.0 5:5.0 6:3.0 
0.05 1:5.0 2:5.0 3:1.0 4:10.0 5:6.0 6:1.0 
0.05 1:5.0 2:4.0 3:1.0 4:10.0 5:6.0 6:1.0 
0.05 1:5.0 2:1.0 3:3.0 4:9.0 5:6.0 6:3.0 
0.05 1:1.0 2:1.0 3:3.0 4:9.0 5:6.0 6:1.0 
0.05 1:4.0 2:4.0 3:2.0 4:2.0 5:6.0 6:1.0 
0.05 1:1.0 2:5.0 3:3.0 4:8.0 5:6.0 6:2.0 
0.05 1:5.0 2:4.0 3:4.0 4:1.0 5:5.0 6:1.0 
0.05 1:5.0 2:4.0 3:3.0 4:2.0 5:6.0 6:3.0 
0.05 1:1.0 2:5.0 3:1.0 4:9.0 5:6.0 6:2.0 
0.05 1:4.0 2:1.0 3:3.0 4:9.0 5:1.0 6:3.0 
0.05 1:5.0 2:1.0 3:4.0 4:9.0 5:1.0 6:1.0 
0.05 1:4.0 2:1.0 3:4.0 4:2.0 5:5.0 6:1.0 
0.05 1:4.0 2:1.0 3:2.0 4:10.0 5:6.0 6:3.0 
0.05 1:5.0 2:4.0 3:3.0 4:10.0 5:1.0 6:2.0 
0.05 1:4.0 2:1.0 3:2.0 4:1.0 5:1.0 6:2.0 
0.05 1:4.0 2:4.0 3:1.0 4:9.0 5:1.0 6:3.0 
0.05 1:1.0 2:4.0 3:3.0 4:9.0 5:5.0 6:2.0 
0.05 1:5.0 2:4.0 3:1.0 4:8.0 5:1.0 6:2.0 
0.05 1:5.0 2:1.0 3:1.0 4:10.0 5:6.0 6:2.0 
0.05 1:5.0 2:5.0 3:4.0 4:8.0 5:1.0 6:2.0 
0.05 1:1.0 2:4.0 3:1.0 4:8.0 5:6.0 6:2.0 
0.05 1:5.0 2:5.0 3:4.0 4:10.0 5:6.0 6:1.0 
0.05 1:4.0 2:1.0 3:1.0 4:9.0 5:1.0 6:1.0 
0.05 1:5.0 2:5.0 3:4.0 4:2.0 5:6.0 6:1.0 
0.05 1:4.0 2:5.0 3:3.0 4:1.0 5:1.0 6:1.0 
0.05 1:4.0 2:1.0 3:2.0 4:8.0 5:6.0 6:3.0 
0.05 1:5.0 2:4.0 3:4.0 4:8.0 5:6.0 6:2.0 
0.05 1:4.0 2:1.0 3:3.0 4:9.0 5:5.0 6:2.0 
0.05 1:1.0 2:4.0 3:3.0 4:9.0 5:1.0 6:1.0 
0.05 1:1.0 2:4.0 3:3.0 4:8.0 5:1.0 6:3.0 
0.05 1:1.0 2:4.0 3:2.0 4:10.0 5:5.0 6:1.0 
0.05 1:4.0 2:5.0 3:1.0 4:10.0 5:1.0 6:1.0 
-0.05 1:2.0 2:3.0 3:5.0 4:6.0 5:3.0 6:5.0 
-0.05 1:3.0 2:2.0 3:7.0 4:7.0 5:3.0 6:10.0 
-0.05 1:3.0 2:3.0 3:7.0 4:7.0 5:3.0 6:8.0 
-0.05 1:3.0 2:3.0 3:6.0 4:4.0 5:2.0 6:8.0 
-0.05 1:2.0 2:2.0 3:6.0 4:4.0 5:3.0 6:9.0 
-0.05 1:2.0 2:2.0 3:5.0 4:4.0 5:3.0 6:10.0 
-0.05 1:3.0 2:3.0 3:5.0 4:3.0 5:2.0 6:9.0 
-0.05 1:3.0 2:3.0 3:6.0 4:3.0 5:2.0 6:4.0 
-0.05 1:2.0 2:3.0 3:5.0 4:3.0 5:3.0 6:7.0 
-0.05 1:2.0 2:3.0 3:7.0 4:6.0 5:4.0 6:8.0 
-0.05 1:2.0 2:2.0 3:5.0 4:4.0 5:4.0 6:4.0 
-0.05 1:2.0 2:2.0 3:6.0 4:7.0 5:3.0 6:7.0 
-0.05 1:2.0 2:2.0 3:7.0 4:7.0 5:2.0 6:6.0 
-0.05 1:2.0 2:2.0 3:5.0 4:6.0 5:2.0 6:5.0 
-0.05 1:2.0 2:2.0 3:6.0 4:7.0 5:2.0 6:5.0 
-0.05 1:3.0 2:3.0 3:7.0 4:5.0 5:4.0 6:8.0 
-0.05 1:3.0 2:3.0 3:5.0 4:7.0 5:2.0 6:5.0 
-0.05 1:3.0 2:3.0 3:5.0 4:4.0 5:2.0 6:9.0 
-0.05 1:3.0 2:2.0 3:6.0 4:6.0 5:2.0 6:5.0 
-0.05 1:3.0 2:3.0 3:6.0 4:4.0 5:3.0 6:4.0 
-0.05 1:3.0 2:2.0 3:6.0 4:5.0 5:2.0 6:8.0 
-0.05 1:3.0 2:3.0 3:6.0 4:3.0 5:2.0 6:10.0 
-0.05 1:2.0 2:3.0 3:5.0 4:3.0 5:4.0 6:6.0 
-0.05 1:3.0 2:2.0 3:5.0 4:3.0 5:2.0 6:9.0 
-0.05 1:2.0 2:3.0 3:5.0 4:7.0 5:2.0 6:6.0 
-0.05 1:2.0 2:3.0 3:6.0 4:7.0 5:2.0 6:9.0 
-0.05 1:2.0 2:3.0 3:6.0 4:3.0 5:3.0 6:8.0 
-0.05 1:3.0 2:2.0 3:7.0 4:6.0 5:4.0 6:6.0 
-0.05 1:3.0 2:2.0 3:6.0 4:6.0 5:4.0 6:9.0 
-0.05 1:2.0 2:3.0 3:5.0 4:4.0 5:2.0 6:4.0 
-0.05 1:3.0 2:3.0 3:7.0 4:6.0 5:2.0 6:5.0 
-0.05 1:2.0 2:3.0 3:5.0 4:4.0 5:4.0 6:7.0 
-0.05 1:2.0 2:3.0 3:5.0 4:6.0 5:2.0 6:8.0 
-0.05 1:2.0 2:3.0 3:7.0 4:3.0 5:4.0 6:7.0 
-0.05 1:3.0 2:2.0 3:5.0 4:4.0 5:4.0 6:8.0 
-0.05 1:3.0 2:3.0 3:5.0 4:3.0 5:2.0 6:5.0 
-0.05 1:3.0 2:3.0 3:6.0 4:3.0 5:2.0 6:9.0 
-0.05 1:3.0 2:3.0 3:7.0 4:4.0 5:2.0 6:9.0 
-0.05 1:3.0 2:2.0 3:5.0 4:7.0 5:4.0 6:10.0 
-0.05 1:3.0 2:3.0 3:7.0 4:3.0 5:3.0 6:4.0 
-0.05 1:2.0 2:2.0 3:7.0 4:6.0 5:4.0 6:7.0 
-0.05 1:2.0 2:2.0 3:6.0 4:6.0 5:4.0 6:5.0 
-0.05 1:3.0 2:3.0 3:5.0 4:3.0 5:2.0 6:7.0 
-0.05 1:2.0 2:3.0 3:6.0 4:7.0 5:2.0 6:5.0 
-0.05 1:2.0 2:3.0 3:6.0 4:7.0 5:3.0 6:10.0 
-0.05 1:2.0 2:2.0 3:6.0 4:3.0 5:2.0 6:10.0 
-0.05 1:3.0 2:3.0 3:6.0 4:4.0 5:2.0 6:7.0 
-0.05 1:3.0 2:3.0 3:7.0 4:6.0 5:3.0 6:10.0 
-0.05 1:3.0 2:2.0 3:5.0 4:3.0 5:3.0 6:7.0 
-0.05 1:2.0 2:2.0 3:6.0 4:5.0 5:4.0 6:4.0 
-0.05 1:2.0 2:3.0 3:6.0 4:4.0 5:4.0 6:5.0 
-0.05 1:2.0 2:3.0 3:7.0 4:5.0 5:4.0 6:7.0 
-0.05 1:2.0 2:3.0 3:6.0 4:6.0 5:3.0 6:9.0 
-0.05 1:2.0 2:3.0 3:7.0 4:7.0 5:3.0 6:8.0 
-0.05 1:2.0 2:2.0 3:6.0 4:4.0 5:3.0 6:8.0 
-0.05 1:3.0 2:2.0 3:7.0 4:5.0 5:4.0 6:4.0 
-0.05 1:3.0 2:2.0 3:5.0 4:6.0 5:2.0 6:9.0 
-0.05 1:3.0 2:2.0 3:7.0 4:6.0 5:2.0 6:7.0 
-0.05 1:2.0 2:2.0 3:7.0 4:6.0 5:3.0 6:10.0 
-0.05 1:2.0 2:2.0 3:7.0 4:7.0 5:4.0 6:7.0 
-0.05 1:2.0 2:2.0 3:5.0 4:4.0 5:4.0 6:10.0 
-0.05 1:2.0 2:3.0 3:6.0 4:5.0 5:2.0 6:7.0 
-0.05 1:2.0 2:3.0 3:6.0 4:7.0 5:3.0 6:5.0 
-0.05 1:3.0 2:2.0 3:5.0 4:5.0 5:2.0 6:7.0 
-0.05 1:3.0 2:3.0 3:7.0 4:6.0 5:3.0 6:10.0 
-0.05 1:2.0 2:3.0 3:5.0 4:5.0 5:4.0 6:6.0 
-0.05 1:3.0 2:3.0 3:6.0 4:5.0 5:4.0 6:9.0 
-0.05 1:2.0 2:3.0 3:6.0 4:7.0 5:3.0 6:4.0 
-0.05 1:3.0 2:3.0 3:5.0 4:3.0 5:3.0 6:7.0 
-0.05 1:2.0 2:2.0 3:6.0 4:4.0 5:2.0 6:7.0 
-0.05 1:2.0 2:3.0 3:7.0 4:7.0 5:2.0 6:5.0 
-0.05 1:3.0 2:3.0 3:7.0 4:5.0 5:2.0 6:6.0 
-0.05 1:2.0 2:3.0 3:7.0 4:6.0 5:4.0 6:8.0 
-0.05 1:3.0 2:2.0 3:6.0 4:3.0 5:4.0 6:7.0 
-0.05 1:3.0 2:2.0 3:5.0 4:6.0 5:3.0 6:6.0 
-0.05 1:3.0 2:3.0 3:7.0 4:3.0 5:4.0 6:10.0 
-0.05 1:3.0 2:3.0 3:7.0 4:3.0 5:4.0 6:4.0 
-0.05 1:3.0 2:3.0 3:6.0 4:5.0 5:2.0 6:8.0 
-0.05 1:2.0 2:2.0 3:5.0 4:6.0 5:3.0 6:10.0 
-0.05 1:2.0 2:3.0 3:5.0 4:6.0 5:3.0 6:5.0 
-0.05 1:3.0 2:3.0 3:7.0 4:7.0 5:4.0 6:8.0 
-0.05 1:3.0 2:2.0 3:5.0 4:3.0 5:4.0 6:4.0 
-0.05 1:3.0 2:3.0 3:5.0 4:7.0 5:4.0 6:10.0 
-0.05 1:2.0 2:3.0 3:6.0 4:7.0 5:4.0 6:8.0 
-0.05 1:2.0 2:3.0 3:5.0 4:4.0 5:4.0 6:9.0 
-0.05 1:3.0 2:2.0 3:7.0 4:6.0 5:4.0 6:9.0 
-0.05 1:2.0 2:3.0 3:6.0 4:6.0 5:2.0 6:10.0 
-0.05 1:2.0 2:2.0 3:7.0 4:5.0 5:4.0 6:8.0 
-0.05 1:2.0 2:3.0 3:7.0 4:5.0 5:3.0 6:4.0 
-0.05 1:2.0 2:3.0 3:6.0 4:4.0 5:4.0 6:8.0 
-0.05 1:3.0 2:3.0 3:6.0 4:5.0 5:2.0 6:8.0 
-0.05 1:2.0 2:2.0 3:7.0 4:3.0 5:4.0 6:6.0 
-0.05 1:2.0 2:3.0 3:6.0 4:6.0 5:2.0 6:10.0 
-0.05 1:2.0 2:3.0 3:6.0 4:6.0 5:2.0 6:7.0 
-0.05 1:2.0 2:2.0 3:6.0 4:4.0 5:4.0 6:4.0 
-0.05 1:3.0 2:2.0 3:5.0 4:7.0 5:2.0 6:4.0 
-0.05 1:3.0 2:3.0 3:6.0 4:3.0 5:4.0 6:4.0 
-0.05 1:3.0 2:3.0 3:7.0 4:6.0 5:3.0 6:6.0 
-0.05 1:3.0 2:2.0 3:6.0 4:5.0 5:3.0 6:10.0 
-0.05 1:3.0 2:2.0 3:5.0 4:4.0 5:2.0 6:9.0 
-0.05 1:2.0 2:2.0 3:7.0 4:3.0 5:3.0 6:6.0 
-0.05 1:3.0 2:3.0 3:7.0 4:6.0 5:2.0 6:6.0 
-0.05 1:2.0 2:2.0 3:5.0 4:4.0 5:2.0 6:4.0 
-0.05 1:2.0 2:2.0 3:7.0 4:3.0 5:3.0 6:9.0 
-0.05 1:3.0 2:3.0 3:5.0 4:4.0 5:2.0 6:5.0 
-0.05 1:2.0 2:3.0 3:6.0 4:5.0 5:3.0 6:9.0 
-0.05 1:2.0 2:3.0 3:7.0 4:5.0 5:2.0 6:7.0 
-0.05 1:2.0 2:2.0 3:5.0 4:4.0 5:4.0 6:8.0 
-0.05 1:2.0 2:2.0 3:7.0 4:6.0 5:2.0 6:4.0 
-0.05 1:3.0 2:3.0 3:7.0 4:5.0 5:3.0 6:8.0 
-0.05 1:2.0 2:3.0 3:7.0 4:5.0 5:4.0 6:7.0 
-0.05 1:2.0 2:2.0 3:7.0 4:6.0 5:4.0 6:7.0 
-0.05 1:2.0 2:3.0 3:6.0 4:4.0 5:3.0 6:10.0 
-0.05 1:2.0 2:2.0 3:7.0 4:5.0 5:2.0 6:7.0 
-0.05 1:3.0 2:2.0 3:6.0 4:7.0 5:2.0 6:5.0 
-0.05 1:3.0 2:3.0 3:5.0 4:7.0 5:4.0 6:5.0 
-0.05 1:2.0 2:3.0 3:7.0 4:3.0 5:2.0 6:10.0 
-0.05 1:2.0 2:2.0 3:6.0 4:5.0 5:2.0 6:5.0 
-0.05 1:3.0 2:3.0 3:5.0 4:7.0 5:2.0 6:8.0 
-0.05 1:2.0 2:3.0 3:6.0 4:7.0 5:2.0 6:5.0 
-0.05 1:3.0 2:2.0 3:5.0 4:7.0 5:2.0 6:6.0 
-0.05 1:3.0 2:2.0 3:5.0 4:7.0 5:3.0 6:9.0 
-0.05 1:2.0 2:3.0 3:5.0 4:7.0 5:2.0 6:4.0 
-0.05 1:2.0 2:2.0 3:7.0 4:3.0 5:2.0 6:9.0 
-0.05 1:2.0 2:2.0 3:6.0 4:7.0 5:2.0 6:6.0 
-0.05 1:3.0 2:3.0 3:5.0 4:3.0 5:2.0 6:4.0 
-0.05 1:3.0 2:3.0 3:5.0 4:3.0 5:4.0 6:8.0 
-0.05 1:3.0 2:2.0 3:7.0 4:6.0 5:4.0 6:6.0 
-0.05 1:3.0 2:2.0 3:6.0 4:6.0 5:4.0 6:8.0 
-0.05 1:3.0 2:2.0 3:5.0 4:4.0 5:4.0 6:5.0 
-0.05 1:2.0 2:3.0 3:6.0 4:7.0 5:4.0 6:7.0 
-0.05 1:3.0 2:3.0 3:6.0 4:4.0 5:3.0 6:6.0 
-0.05 1:3.0 2:2.0 3:5.0 4:7.0 5:2.0 6:5.0 
-0.05 1:2.0 2:3.0 3:7.0 4:3.0 5:3.0 6:7.0 
-0.05 1:3.0 2:3.0 3:7.0 4:7.0 5:3.0 6:4.0 
-0.05 1:3.0 2:3.0 3:5.0 4:3.0 5:2.0 6:10.0 
-0.05 1:3.0 2:2.0 3:7.0 4:4.0 5:3.0 6:10.0 
-0.05 1:3.0 2:3.0 3:7.0 4:7.0 5:4.0 6:8.0 
-0.05 1:2.0 2:2.0 3:7.0 4:4.0 5:3.0 6:5.0 
-0.05 1:3.0 2:3.0 3:5.0 4:5.0 5:2.0 6:4.0 
-0.05 1:2.0 2:2.0 3:6.0 4:6.0 5:4.0 6:6.0 
-0.05 1:3.0 2:2.0 3:7.0 4:5.0 5:2.0 6:10.0 
-0.05 1:3.0 2:2.0 3:6.0 4:7.0 5:2.0 6:4.0 
-0.05 1:3.0 2:2.0 3:6.0 4:7.0 5:3.0 6:6.0 
-0.05 1:2.0 2:3.0 3:6.0 4:5.0 5:3.0 6:10.0 
-0.05 1:3.0 2:2.0 3:6.0 4:3.0 5:4.0 6:10.0 
-0.05 1:2.0 2:2.0 3:6.0 4:6.0 5:3.0 6:10.0 
-0.05 1:3.0 2:2.0 3:6.0 4:7.0 5:2.0 6:6.0 
-0.05 1:2.0 2:3.0 3:6.0 4:3.0 5:4.0 6:8.0 
-0.05 1:3.0 2:2.0 3:6.0 4:4.0 5:4.0 6:10.0 
-0.05 1:2.0 2:2.0 3:6.0 4:5.0 5:3.0 6:9.0 
-0.05 1:3.0 2:2.0 3:7.0 4:6.0 5:4.0 6:10.0 
-0.05 1:3.0 2:2.0 3:6.0 4:3.0 5:4.0 6:4.0 
-0.05 1:2.0 2:3.0 3:6.0 4:3.0 5:3.0 6:6.0 
-0.05 1:3.0 2:3.0 3:6.0 4:4.0 5:3.0 6:6.0 
-0.05 1:3.0 2:2.0 3:7.0 4:3.0 5:4.0 6:5.0 
-0.05 1:3.0 2:3.0 3:5.0 4:7.0 5:4.0 6:9.0 
-0.05 1:3.0 2:2.0 3:5.0 4:5.0 5:2.0 6:8.0 
-0.05 1:3.0 2:2.0 3:7.0 4:5.0 5:2.0 6:10.0 
-0.05 1:2.0 2:2.0 3:5.0 4:6.0 5:2.0 6:9.0 
-0.05 1:2.0 2:3.0 3:5.0 4:5.0 5:4.0 6:5.0 
-0.05 1:3.0 2:3.0 3:7.0 4:6.0 5:2.0 6:9.0 
-0.05 1:2.0 2:3.0 3:7.0 4:3.0 5:3.0 6:10.0 
-0.05 1:2.0 2:3.0 3:5.0 4:6.0 5:3.0 6:8.0 
-0.05 1:2.0 2:2.0 3:5.0 4:5.0 5:4.0 6:7.0 
-0.05 1:2.0 2:3.0 3:7.0 4:6.0 5:4.0 6:8.0 
-0.05 1:3.0 2:2.0 3:5.0 4:3.0 5:3.0 6:8.0 
-0.05 1:3.0 2:3.0 3:5.0 4:7.0 5:3.0 6:5.0 
-0.05 1:3.0 2:2.0 3:7.0 4:7.0 5:4.0 6:9.0 
-0.05 1:3.0 2:3.0 3:7.0 4:3.0 5:3.0 6:9.0 
-0.05 1:2.0 2:3.0 3:5.0 4:5.0 5:2.0 6:5.0 
-0.05 1:3.0 2:3.0 3:7.0 4:4.0 5:3.0 6:9.0 
-0.05 1:2.0 2:2.0 3:6.0 4:6.0 5:3.0 6:4.0 
-0.05 1:2.0 2:2.0 3:6.0 4:7.0 5:3.0 6:10.0 
-0.05 1:2.0 2:2.0 3:6.0 4:4.0 5:2.0 6:7.0 
-0.05 1:2.0 2:3.0 3:6.0 4:4.0 5:3.0 6:6.0 
-0.05 1:2.0 2:3.0 3:7.0 4:7.0 5:3.0 6:6.0 
-0.05 1:2.0 2:3.0 3:5.0 4:5.0 5:4.0 6:7.0 
-0.05 1:2.0 2:3.0 3:6.0 4:6.0 5:4.0 6:7.0 
-0.05 1:2.0 2:2.0 3:5.0 4:3.0 5:3.0 6:9.0 
-0.05 1:2.0 2:2.0 3:6.0 4:4.0 5:2.0 6:4.0 
-0.05 1:2.0 2:2.0 3:7.0 4:5.0 5:2.0 6:4.0 
-0.05 1:3.0 2:2.0 3:5.0 4:3.0 5:2.0 6:5.0 
-0.05 1:3.0 2:3.0 3:5.0 4:4.0 5:4.0 6:6.0 
-0.05 1:2.0 2:3.0 3:5.0 4:7.0 5:4.0 6:8.0 
-0.05 1:2.0 2:3.0 3:5.0 4:4.0 5:2.0 6:10.0 
-0.05 1:3.0 2:2.0 3:7.0 4:6.0 5:3.0 6:7.0 
-0.05 1:2.0 2:2.0 3:6.0 4:7.0 5:4.0 6:9.0 
-0.05 1:3.0 2:3.0 3:5.0 4:5.0 5:4.0 6:9.0 
-0.05 1:2.0 2:2.0 3:7.0 4:3.0 5:2.0 6:8.0 
-0.05 1:2.0 2:2.0 3:5.0 4:7.0 5:2.0 6:4.0 
-0.05 1:2.0 2:2.0 3:6.0 4:5.0 5:2.0 6:9.0 
-0.05 1:3.0 2:3.0 3:5.0 4:7.0 5:4.0 6:10.0 
-0.05 1:2.0 2:3.0 3:5.0 4:7.0 5:4.0 6:5.0 
-0.05 1:2.0 2:2.0 3:6.0 4:4.0 5:4.0 6:6.0 
-0.05 1:2.0 2:3.0 3:7.0 4:4.0 5:2.0 6:9.0 
-0.05 1:2.0 2:2.0 3:7.0 4:4.0 5:2.0 6:6.0 
-0.05 1:2.0 2:3.0 3:6.0 4:5.0 5:4.0 6:9.0 
-0.05 1:2.0 2:3.0 3:6.0 4:4.0 5:2.0 6:7.0 
-0.05 1:3.0 2:2.0 3:5.0 4:5.0 5:4.0 6:5.0 
-0.02649652274653061 1:1.0 2:1.0 3:1.0 4:10.0 5:1.0 6:1.0 
-0.05 1:1.0 2:4.0 3:4.0 4:8.0 5:1.0 6:2.0 
-0.05 1:5.0 2:5.0 3:1.0 4:1.0 5:6.0 6:3.0 
-0.05 1:5.0 2:1.0 3:4.0 4:8.0 5:1.0 6:3.0 
-0.05 1:1.0 2:4.0 3:4.0 4:2.0 5:6.0 6:3.0 
-0.05 1:4.0 2:5.0 3:4.0 4:2.0 5:1.0 6:3.0 
-0.05 1:1.0 2:5.0 3:1.0 4:10.0 5:6.0 6:1.0 
-0.05 1:1.0 2:5.0 3:1.0 4:8.0 5:6.0 6:1.0 
-0.05 1:5.0 2:4.0 3:4.0 4:10.0 5:6.0 6:1.0 
-0.05 1:5.0 2:4.0 3:4.0 4:8.0 5:5.0 6:3.0 
-0.05 1:1.0 2:5.0 3:1.0 4:10.0 5:5.0 6:1.0 
-0.05 1:5.0 2:5.0 3:4.0 4:1.0 5:6.0 6:1.0 
-0.05 1:5.0 2:1.0 3:1.0 4:8.0 5:6.0 6:1.0 
-0.05 1:1.0 2:4.0 3:4.0 4:2.0 5:5.0 6:3.0 
-0.05 1:1.0 2:1.0 3:4.0 4:2.0 5:1.0 6:2.0 
-0.011981474954455033 1:1.0 2:1.0 3:1.0 4:2.0 5:5.0 6:3.0 
-0.05 1:4.0 2:4.0 3:4.0 4:8.0 5:1.0 6:3.0 
-0.021545680434866498 1:1.0 2:1.0 3:4.0 4:8.0 5:1.0 6:1.0 
-0.05 1:4.0 2:1.0 3:4.0 4:10.0 5:6.0 6:1.0 
-0.05 1:4.0 2:4.0 3:4.0 4:2.0 5:1.0 6:3.0 
-0.02860468157363207 1:1.0 2:5.0 3:4.0 4:10.0 5:6.0 6:1.0 
-0.05 1:5.0 2:4.0 3:4.0 4:2.0 5:5.0 6:3.0 
-0.05 1:5.0 2:1.0 3:1.0 4:10.0 5:1.0 6:1.0 
-0.05 1:5.0 2:1.0 3:4.0 4:8.0 5:5.0 6:3.0 
-0.05 1:5.0 2:4.0 3:4.0 4:8.0 5:1.0 6:3.0 
-0.023077588407197296 1:1.0 2:1.0 3:1.0 4:8.0 5:1.0 6:3.0 
-0.05 1:1.0 2:5.0 3:4.0 4:8.0 5:1.0 6:3.0 
-0.05 1:4.0 2:1.0 3:4.0 4:9.0 5:1.0 6:3.0 
-0.05 1:5.0 2:5.0 3:4.0 4:2.0 5:1.0 6:1.0 
-0.04443690199086153 1:5.0 2:5.0 3:1.0 4:2.0 5:6.0 6:1.0 
-0.05 1:1.0 2:1.0 3:4.0 4:9.0 5:5.0 6:3.0 
-0.0379539037974158 1:5.0 2:1.0 3:1.0 4:2.0 5:1.0 6:1.0 
-0.04378153265205246 1:1.0 2:5.0 3:1.0 4:2.0 5:6.0 6:1.0 
-0.05 1:5.0 2:1.0 3:4.0 4:2.0 5:5.0 6:3.0 
-0.05 1:1.0 2:5.0 3:1.0 4:8.0 5:1.0 6:1.0 
-0.05 1:4.0 2:1.0 3:4.0 4:8.0 5:1.0 6:3.0 
-0.05 1:5.0 2:5.0 3:1.0 4:8.0 5:1.0 6:1.0 
-0.05 1:5.0 2:5.0 3:1.0 4:10.0 5:1.0 6:1.0 
-0.05 1:4.0 2:5.0 3:4.0 4:8.0 5:1.0 6:3.0 
-0.05 1:1.0 2:5.0 3:1.0 4:10.0 5:6.0 6:3.0 
-0.05 1:5.0 2:5.0 3:1.0 4:2.0 5:6.0 6:1.0 
-0.05 1:5.0 2:4.0 3:4.0 4:2.0 5:5.0 6:3.0 
-0.05 1:4.0 2:4.0 3:4.0 4:8.0 5:5.0 6:3.0 
-0.05 1:1.0 2:5.0 3:1.0 4:2.0 5:6.0 6:1.0 
-0.05 1:1.0 2:1.0 3:4.0 4:2.0 5:5.0 6:3.0 
-0.05 1:4.0 2:4.0 3:4.0 4:2.0 5:5.0 6:3.0 
-0.03720353697579934 1:5.0 2:1.0 3:2.0 4:10.0 5:6.0 6:1.0 
-0.05 1:1.0 2:5.0 3:1.0 4:8.0 5:6.0 6:1.0 
-0.05 1:4.0 2:1.0 3:4.0 4:2.0 5:5.0 6:1.0 
-0.05 1:1.0 2:1.0 3:4.0 4:8.0 5:1.0 6:1.0 
-0.05 1:5.0 2:1.0 3:2.0 4:10.0 5:6.0 6:1.0 
-0.05 1:4.0 2:1.0 3:4.0 4:2.0 5:5.0 6:3.0 
-0.05 1:1.0 2:1.0 3:1.0 4:10.0 5:1.0 6:1.0 
-0.036612552443339635 1:1.0 2:1.0 3:1.0 4:2.0 5:1.0 6:1.0 
-0.05 1:4.0 2:4.0 3:4.0 4:8.0 5:1.0 6:3.0 
-0.05 1:1.0 2:5.0 3:4.0 4:8.0 5:5.0 6:3.0 
-0.05 1:1.0 2:1.0 3:4.0 4:1.0 5:1.0 6:3.0 
-0.007781615989741149 1:5.0 2:5.0 3:1.0 4:8.0 5:6.0 6:3.0 
-0.05 1:1.0 2:1.0 3:4.0 4:2.0 5:6.0 6:3.0 
-0.029191004286133346 1:4.0 2:1.0 3:4.0 4:2.0 5:6.0 6:3.0 
-0.05 1:5.0 2:5.0 3:1.0 4:10.0 5:1.0 6:3.0 
-0.05 1:5.0 2:1.0 3:4.0 4:2.0 5:1.0 6:3.0 
-0.05 1:5.0 2:5.0 3:1.0 4:10.0 5:1.0 6:1.0 
-0.05 1:5.0 2:5.0 3:1.0 4:8.0 5:6.0 6:3.0 
-0.05 1:4.0 2:4.0 3:4.0 4:2.0 5:1.0 6:3.0 
-0.018460387980685507 1:5.0 2:1.0 3:1.0 4:8.0 5:1.0 6:1.0 
-0.006055188439904262 1:1.0 2:5.0 3:1.0 4:1.0 5:5.0 6:1.0 
-0.05 1:5.0 2:5.0 3:4.0 4:8.0 5:1.0 6:3.0 
-0.05 1:5.0 2:1.0 3:1.0 4:10.0 5:1.0 6:1.0 
-0.05 1:1.0 2:1.0 3:4.0 4:8.0 5:6.0 6:3.0 
-0.05 1:4.0 2:1.0 3:4.0 4:8.0 5:5.0 6:3.0 
-0.05 1:1.0 2:5.0 3:1.0 4:1.0 5:6.0 6:1.0 
-0.04450011295708982 1:4.0 2:1.0 3:3.0 4:8.0 5:5.0 6:3.0 
-0.05 1:1.0 2:1.0 3:4.0 4:9.0 5:1.0 6:3.0 
-0.05 1:5.0 2:5.0 3:1.0 4:10.0 5:1.0 6:3.0 
-0.05 1:1.0 2:1.0 3:1.0 4:10.0 5:1.0 6:1.0 
-0.03708249709219999 1:1.0 2:1.0 3:4.0 4:1.0 5:5.0 6:3.0 
-0.05 1:5.0 2:5.0 3:4.0 4:10.0 5:6.0 6:1.0 
-0.01653031817285018 1:1.0 2:5.0 3:4.0 4:2.0 5:5.0 6:1.0 
-0.04549116934360005 1:5.0 2:4.0 3:1.0 4:10.0 5:1.0 6:1.0 
-0.05 1:1.0 2:1.0 3:4.0 4:9.0 5:5.0 6:3.0 
-0.05 1:1.0 2:1.0 3:4.0 4:9.0 5:1.0 6:3.0 
-0.05 1:5.0 2:5.0 3:4.0 4:1.0 5:6.0 6:1.0 
-0.05 1:5.0 2:5.0 3:4.0 4:2.0 5:1.0 6:1.0 
-0.05 1:4.0 2:4.0 3:4.0 4:2.0 5:5.0 6:3.0 
-0.05 1:1.0 2:1.0 3:1.0 4:10.0 5:1.0 6:1.0 
-0.05 1:1.0 2:5.0 3:4.0 4:8.0 5:5.0 6:3.0 
-0.037272303290795374 1:5.0 2:5.0 3:1.0 4:2.0 5:1.0 6:1.0 
-0.017121594587027767 1:5.0 2:1.0 3:1.0 4:8.0 5:1.0 6:3.0 
-0.05 1:1.0 2:4.0 3:4.0 4:9.0 5:5.0 6:3.0 
-0.05 1:5.0 2:5.0 3:1.0 4:8.0 5:1.0 6:1.0 
-0.05 1:5.0 2:5.0 3:4.0 4:8.0 5:1.0 6:3.0 
-0.008166360978869358 1:1.0 2:4.0 3:3.0 4:8.0 5:1.0 6:3.0 
-0.05 1:1.0 2:5.0 3:4.0 4:2.0 5:5.0 6:3.0 
-0.05 1:5.0 2:1.0 3:1.0 4:8.0 5:1.0 6:1.0 
-0.05 1:5.0 2:5.0 3:4.0 4:10.0 5:6.0 6:1.0 
-0.0036744031896148136 1:1.0 2:5.0 3:1.0 4:10.0 5:1.0 6:1.0 
-0.05 1:5.0 2:1.0 3:1.0 4:2.0 5:1.0 6:1.0 
-0.02273938217838409 1:5.0 2:1.0 3:1.0 4:2.0 5:6.0 6:1.0 
-0.05 1:1.0 2:1.0 3:4.0 4:2.0 5:1.0 6:3.0 
-0.05 1:5.0 2:5.0 3:1.0 4:2.0 5:1.0 6:1.0 
-0.05 1:4.0 2:1.0 3:4.0 4:9.0 5:1.0 6:3.0 
-0.05 1:5.0 2:5.0 3:1.0 4:10.0 5:5.0 6:3.0 
-0.046041195826991704 1:4.0 2:1.0 3:4.0 4:1.0 5:1.0 6:3.0 
-0.05 1:5.0 2:5.0 3:1.0 4:2.0 5:6.0 6:3.0 
-0.05 1:4.0 2:1.0 3:4.0 4:8.0 5:5.0 6:3.0 
-0.05 1:5.0 2:1.0 3:1.0 4:10.0 5:1.0 6:1.0 
-0.05 1:4.0 2:4.0 3:4.0 4:2.0 5:5.0 6:3.0 
-0.05 1:4.0 2:4.0 3:4.0 4:2.0 5:6.0 6:3.0 
-0.05 1:4.0 2:1.0 3:4.0 4:8.0 5:1.0 6:2.0 
-0.04923951495775469 1:1.0 2:5.0 3:1.0 4:8.0 5:6.0 6:3.0 
-0.05 1:5.0 2:1.0 3:4.0 4:2.0 5:1.0 6:3.0 
-0.05 1:1.0 2:1.0 3:4.0 4:8.0 5:5.0 6:2.0 
-0.04808988742607906 1:1.0 2:4.0 3:4.0 4:2.0 5:5.0 6:2.0 
-0.05 1:1.0 2:5.0 3:4.0 4:2.0 5:1.0 6:3.0 
-0.05 1:5.0 2:1.0 3:1.0 4:8.0 5:1.0 6:3.0 
-0.05 1:1.0 2:4.0 3:3.0 4:8.0 5:1.0 6:3.0 
-0.0035823827294517983 1:4.0 2:4.0 3:4.0 4:8.0 5:5.0 6:2.0 
-0.05 1:1.0 2:1.0 3:4.0 4:1.0 5:1.0 6:3.0 
-0.026369740477796447 1:5.0 2:5.0 3:1.0 4:1.0 5:5.0 6:3.0 
-0.014057594573642723 1:4.0 2:1.0 3:1.0 4:8.0 5:6.0 6:3.0 
-0.05 1:1.0 2:1.0 3:4.0 4:2.0 5:1.0 6:3.0 
-0.05 1:1.0 2:4.0 3:4.0 4:1.0 5:1.0 6:3.0 
-0.05 1:1.0 2:4.0 3:4.0 4:8.0 5:5.0 6:2.0 
-0.05 1:1.0 2:1.0 3:4.0 4:2.0 5:6.0 6:3.0 
-0.05 1:5.0 2:1.0 3:1.0 4:10.0 5:1.0 6:3.0 
-0.05 1:5.0 2:1.0 3:1.0 4:8.0 5:1.0 6:3.0 
-0.0012359799251332928 1:4.0 2:1.0 3:1.0 4:1.0 5:1.0 6:1.0 
-0.03576372997905862 1:5.0 2:1.0 3:4.0 4:10.0 5:1.0 6:1.0 
-0.05 1:1.0 2:1.0 3:4.0 4:1.0 5:5.0 6:3.0 
-0.05 1:4.0 2:1.0 3:4.0 4:8.0 5:6.0 6:3.0 
-0.05 1:1.0 2:1.0 3:4.0 4:8.0 5:5.0 6:2.0 
-0.05 1:1.0 2:1.0 3:4.0 4:2.0 5:6.0 6:3.0 
-0.039127030443086915 1:4.0 2:1.0 3:4.0 4:9.0 5:5.0 6:3.0 
-0.05 1:4.0 2:1.0 3:4.0 4:8.0 5:6.0 6:3.0 
-0.05 1:1.0 2:1.0 3:4.0 4:1.0 5:5.0 6:3.0 
-0.05 1:1.0 2:4.0 3:4.0 4:9.0 5:5.0 6:3.0 
-0.05 1:5.0 2:4.0 3:4.0 4:2.0 5:1.0 6:3.0 
-0.05 1:1.0 2:5.0 3:4.0 4:2.0 5:1.0 6:3.0 
-0.05 1:4.0 2:1.0 3:4.0 4:2.0 5:1.0 6:3.0 
-0.02074059332547188 1:1.0 2:4.0 3:4.0 4:1.0 5:5.0 6:3.0 
-0.05 1:1.0 2:5.0 3:1.0 4:1.0 5:6.0 6:1.0 
-0.05 1:5.0 2:1.0 3:1.0 4:10.0 5:1.0 6:3.0 
-0.003374206038791793 1:5.0 2:1.0 3:4.0 4:8.0 5:6.0 6:3.0 
-0.05 1:1.0 2:4.0 3:4.0 4:9.0 5:1.0 6:3.0 
-0.014568221556547627 1:4.0 2:5.0 3:1.0 4:10.0 5:5.0 6:1.0 
-0.05 1:4.0 2:1.0 3:4.0 4:9.0 5:1.0 6:3.0 
-0.05 1:4.0 2:4.0 3:4.0 4:2.0 5:5.0 6:3.0 
-0.05 1:1.0 2:1.0 3:4.0 4:8.0 5:5.0 6:3.0 
-0.034256497672616855 1:5.0 2:5.0 3:1.0 4:8.0 5:1.0 6:3.0 
-0.047764810798506224 1:4.0 2:4.0 3:4.0 4:1.0 5:1.0 6:3.0 
-0.02541471222291176 1:5.0 2:5.0 3:3.0 4:10.0 5:6.0 6:1.0 
-0.05 1:1.0 2:5.0 3:1.0 4:10.0 5:6.0 6:1.0 
-0.05 1:4.0 2:4.0 3:4.0 4:8.0 5:1.0 6:3.0 
-0.05 1:4.0 2:1.0 3:4.0 4:8.0 5:6.0 6:3.0 
-0.043247883230851145 1:1.0 2:4.0 3:4.0 4:8.0 5:5.0 6:1.0 
-0.05 1:5.0 2:1.0 3:1.0 4:2.0 5:6.0 6:1.0 
-0.003300258976150606 1:4.0 2:4.0 3:4.0 4:1.0 5:5.0 6:3.0 
-0.05 1:5.0 2:5.0 3:1.0 4:8.0 5:5.0 6:1.0 
-0.039937144606058794 1:5.0 2:1.0 3:4.0 4:8.0 5:6.0 6:1.0 
-0.027994304891760764 1:1.0 2:5.0 3:1.0 4:8.0 5:1.0 6:3.0 
-0.05 1:5.0 2:1.0 3:4.0 4:10.0 5:1.0 6:1.0 
-0.05 1:1.0 2:4.0 3:4.0 4:1.0 5:1.0 6:3.0 
-0.05 1:4.0 2:1.0 3:4.0 4:8.0 5:1.0 6:3.0 
-0.036307830768928934 1:5.0 2:5.0 3:4.0 4:1.0 5:5.0 6:1.0 
-0.05 1:5.0 2:5.0 3:1.0 4:2.0 5:1.0 6:1.0 
-0.05 1:5.0 2:1.0 3:4.0 4:8.0 5:5.0 6:3.0 
-0.05 1:5.0 2:1.0 3:4.0 4:8.0 5:6.0 6:3.0 
-0.04818447613979782 1:5.0 2:5.0 3:4.0 4:2.0 5:6.0 6:1.0 
-0.05 1:4.0 2:4.0 3:4.0 4:2.0 5:5.0 6:3.0 
-0.05 1:1.0 2:1.0 3:4.0 4:8.0 5:1.0 6:1.0 
-0.05 1:5.0 2:1.0 3:1.0 4:8.0 5:1.0 6:1.0 
-0.05 1:1.0 2:1.0 3:1.0 4:2.0 5:1.0 6:3.0 
-0.05 1:4.0 2:4.0 3:4.0 4:8.0 5:5.0 6:2.0 
-0.05 1:5.0 2:5.0 3:1.0 4:8.0 5:6.0 6:3.0 
-0.05 1:5.0 2:5.0 3:4.0 4:10.0 5:1.0 6:1.0 
-0.011626903172896327 1:5.0 2:1.0 3:4.0 4:10.0 5:1.0 6:3.0 
-0.03714102046384009 1:1.0 2:1.0 3:1.0 4:1.0 5:1.0 6:1.0 
-0.033483360795425826 1:4.0 2:4.0 3:4.0 4:9.0 5:5.0 6:3.0 
-0.05 1:1.0 2:5.0 3:4.0 4:8.0 5:5.0 6:3.0 
-0.05 1:5.0 2:5.0 3:1.0 4:8.0 5:1.0 6:1.0 
-0.007496225314280529 1:5.0 2:1.0 3:1.0 4:1.0 5:1.0 6:3.0 
-0.05 1:5.0 2:5.0 3:4.0 4:10.0 5:1.0 6:1.0 
-0.05 1:5.0 2:1.0 3:4.0 4:2.0 5:1.0 6:3.0 
-0.05 1:5.0 2:5.0 3:1.0 4:2.0 5:1.0 6:1.0 
-0.025639103948223486 1:5.0 2:5.0 3:1.0 4:1.0 5:5.0 6:1.0 
-0.05 1:5.0 2:5.0 3:1.0 4:1.0 5:1.0 6:3.0 
-0.05 1:4.0 2:4.0 3:4.0 4:9.0 5:5.0 6:3.0 
-0.0197769801948793 1:1.0 2:1.0 3:3.0 4:8.0 5:5.0 6:3.0 
-0.014034075387126966 1:5.0 2:5.0 3:1.0 4:10.0 5:5.0 6:1.0 
-0.05 1:4.0 2:4.0 3:4.0 4:9.0 5:1.0 6:3.0 
-0.05 1:4.0 2:1.0 3:4.0 4:8.0 5:6.0 6:3.0 
-0.05 1:4.0 2:5.0 3:4.0 4:8.0 5:5.0 6:3.0 
-0.05 1:1.0 2:1.0 3:1.0 4:1.0 5:6.0 6:1.0 
-0.05 1:5.0 2:5.0 3:1.0 4:10.0 5:6.0 6:1.0 
-0.05 1:4.0 2:4.0 3:4.0 4:8.0 5:6.0 6:3.0 
-0.05 1:4.0 2:4.0 3:4.0 4:8.0 5:5.0 6:3.0 
-0.05 1:5.0 2:1.0 3:4.0 4:2.0 5:5.0 6:3.0 
-0.05 1:1.0 2:1.0 3:4.0 4:2.0 5:1.0 6:3.0 
-0.03650672851622261 1:5.0 2:4.0 3:1.0 4:8.0 5:6.0 6:1.0 
-0.05 1:5.0 2:1.0 3:1.0 4:1.0 5:1.0 6:1.0 
-0.05 1:5.0 2:4.0 3:1.0 4:8.0 5:6.0 6:1.0 
-0.05 1:5.0 2:4.0 3:4.0 4:8.0 5:5.0 6:3.0 
-0.03656586713997107 1:5.0 2:5.0 3:4.0 4:1.0 5:1.0 6:3.0 
-0.05 1:1.0 2:5.0 3:4.0 4:10.0 5:6.0 6:1.0 
-0.05 1:5.0 2:1.0 3:1.0 4:1.0 5:6.0 6:1.0 
-0.018237879156958445 1:5.0 2:5.0 3:1.0 4:10.0 5:5.0 6:3.0 
-0.05 1:1.0 2:1.0 3:1.0 4:1.0 5:6.0 6:1.0 
-0.05 1:1.0 2:5.0 3:4.0 4:2.0 5:1.0 6:3.0 
-0.029189957491489796 1:5.0 2:5.0 3:1.0 4:1.0 5:6.0 6:1.0 
-0.05 1:1.0 2:1.0 3:4.0 4:2.0 5:1.0 6:2.0 
-0.05 1:5.0 2:5.0 3:1.0 4:8.0 5:1.0 6:3.0 
-0.05 1:1.0 2:4.0 3:4.0 4:1.0 5:1.0 6:3.0 
-0.05 1:1.0 2:5.0 3:1.0 4:10.0 5:1.0 6:3.0 
-0.003630450637238247 1:1.0 2:1.0 3:1.0 4:8.0 5:6.0 6:1.0 
-0.05 1:1.0 2:1.0 3:1.0 4:2.0 5:1.0 6:3.0 
-0.05 1:1.0 2:4.0 3:4.0 4:9.0 5:1.0 6:3.0 
-0.01854681102655432 1:4.0 2:5.0 3:1.0 4:10.0 5:1.0 6:1.0 
-0.0076816308572805955 1:1.0 2:1.0 3:1.0 4:10.0 5:6.0 6:1.0 
-0.05 1:5.0 2:4.0 3:4.0 4:10.0 5:6.0 6:1.0 
-0.05 1:1.0 2:5.0 3:4.0 4:10.0 5:6.0 6:1.0 
-0.05 1:1.0 2:4.0 3:4.0 4:8.0 5:1.0 6:2.0 
-0.05 1:1.0 2:5.0 3:1.0 4:1.0 5:1.0 6:1.0 
-0.05 1:5.0 2:5.0 3:1.0 4:8.0 5:5.0 6:1.0 
-0.04775343995753425 1:4.0 2:4.0 3:1.0 4:10.0 5:5.0 6:1.0 
-0.05 1:5.0 2:5.0 3:1.0 4:10.0 5:1.0 6:3.0 
-0.05 1:4.0 2:1.0 3:1.0 4:8.0 5:6.0 6:3.0 
-0.05 1:4.0 2:5.0 3:4.0 4:8.0 5:5.0 6:3.0 
-0.05 1:5.0 2:5.0 3:1.0 4:1.0 5:6.0 6:1.0 
-0.05 1:1.0 2:1.0 3:4.0 4:2.0 5:1.0 6:2.0 
-0.013920708706297226 1:5.0 2:4.0 3:1.0 4:2.0 5:6.0 6:1.0 
-0.05 1:5.0 2:5.0 3:4.0 4:2.0 5:1.0 6:3.0 
-0.04636869800439922 1:1.0 2:1.0 3:4.0 4:8.0 5:1.0 6:1.0 
-0.05 1:5.0 2:1.0 3:1.0 4:1.0 5:6.0 6:1.0 
-0.05 1:5.0 2:5.0 3:3.0 4:10.0 5:6.0 6:1.0 
-0.05 1:5.0 2:5.0 3:1.0 4:10.0 5:6.0 6:3.0 
-0.05 1:1.0 2:4.0 3:4.0 4:9.0 5:1.0 6:3.0 
-0.05 1:1.0 2:4.0 3:3.0 4:8.0 5:1.0 6:3.0 
-0.0394604750449087 1:5.0 2:4.0 3:1.0 4:8.0 5:1.0 6:1.0 
-0.05 1:5.0 2:1.0 3:1.0 4:10.0 5:6.0 6:3.0 
-0.006282751899254161 1:5.0 2:5.0 3:1.0 4:8.0 5:5.0 6:1.0 
-0.04009988862596804 1:1.0 2:5.0 3:1.0 4:2.0 5:5.0 6:3.0 
-0.05 1:1.0 2:4.0 3:4.0 4:1.0 5:5.0 6:3.0 
-0.05 1:1.0 2:1.0 3:1.0 4:10.0 5:6.0 6:1.0 
-0.05 1:1.0 2:4.0 3:4.0 4:2.0 5:5.0 6:3.0 
-0.05 1:5.0 2:1.0 3:1.0 4:10.0 5:6.0 6:1.0 
-0.05 1:4.0 2:1.0 3:4.0 4:8.0 5:1.0 6:2.0 
-0.023284737988751206 1:1.0 2:5.0 3:4.0 4:10.0 5:1.0 6:1.0 
-0.05 1:1.0 2:1.0 3:3.0 4:8.0 5:5.0 6:3.0 
-0.024107635890928035 1:1.0 2:4.0 3:1.0 4:8.0 5:5.0 6:3.0 
-0.05 1:4.0 2:1.0 3:4.0 4:8.0 5:5.0 6:3.0 
-0.05 1:1.0 2:4.0 3:4.0 4:8.0 5:1.0 6:2.0 
-0.05 1:5.0 2:5.0 3:4.0 4:8.0 5:6.0 6:1.0 
-0.05 1:5.0 2:5.0 3:1.0 4:1.0 5:1.0 6:1.0 
-0.05 1:5.0 2:4.0 3:4.0 4:8.0 5:6.0 6:3.0 
-0.05 1:5.0 2:1.0 3:1.0 4:1.0 5:1.0 6:3.0 
-0.05 1:1.0 2:4.0 3:4.0 4:9.0 5:5.0 6:3.0 
-0.05 1:1.0 2:1.0 3:1.0 4:1.0 5:6.0 6:1.0 
-0.01226814595646829 1:5.0 2:4.0 3:1.0 4:1.0 5:6.0 6:3.0 
-0.05 1:5.0 2:1.0 3:1.0 4:10.0 5:6.0 6:1.0 
-0.05 1:5.0 2:5.0 3:1.0 4:8.0 5:1.0 6:1.0 
-0.022033428593656763 1:5.0 2:1.0 3:1.0 4:1.0 5:6.0 6:3.0 
-0.05 1:1.0 2:5.0 3:1.0 4:10.0 5:6.0 6:1.0 
-0.05 1:4.0 2:1.0 3:4.0 4:2.0 5:1.0 6:3.0 
-0.02291391933861873 1:4.0 2:5.0 3:1.0 4:1.0 5:5.0 6:1.0 
-0.05 1:5.0 2:1.0 3:1.0 4:1.0 5:6.0 6:1.0 
-0.05 1:5.0 2:5.0 3:4.0 4:1.0 5:6.0 6:1.0 
-0.05 1:4.0 2:1.0 3:4.0 4:1.0 5:1.0 6:3.0 
-0.03537997609404607 1:5.0 2:5.0 3:1.0 4:10.0 5:1.0 6:3.0 
-0.05 1:4.0 2:5.0 3:4.0 4:8.0 5:5.0 6:3.0 
-0.05 1:5.0 2:1.0 3:4.0 4:10.0 5:6.0 6:3.0 
-0.05 1:4.0 2:1.0 3:4.0 4:10.0 5:6.0 6:1.0 
-0.05 1:4.0 2:5.0 3:4.0 4:8.0 5:5.0 6:3.0 
-0.04854467140707538 1:5.0 2:5.0 3:4.0 4:2.0 5:6.0 6:1.0 
-0.05 1:1.0 2:1.0 3:4.0 4:2.0 5:1.0 6:2.0 
-0.04489672606308365 1:5.0 2:1.0 3:1.0 4:10.0 5:6.0 6:1.0 
-0.05 1:5.0 2:4.0 3:4.0 4:8.0 5:5.0 6:3.0 
-0.05 1:5.0 2:5.0 3:4.0 4:10.0 5:1.0 6:1.0 
-0.05 1:1.0 2:1.0 3:1.0 4:2.0 5:5.0 6:3.0 
-0.05 1:4.0 2:4.0 3:4.0 4:8.0 5:1.0 6:2.0 
-0.05 1:4.0 2:5.0 3:4.0 4:8.0 5:5.0 6:3.0 
-0.05 1:5.0 2:4.0 3:4.0 4:8.0 5:6.0 6:1.0 
-0.047865782475044645 1:4.0 2:1.0 3:4.0 4:1.0 5:1.0 6:3.0 
-0.05 1:1.0 2:4.0 3:4.0 4:2.0 5:6.0 6:3.0 
-0.05 1:5.0 2:5.0 3:1.0 4:10.0 5:6.0 6:3.0 
-0.05 1:1.0 2:1.0 3:3.0 4:8.0 5:5.0 6:3.0 
-0.05 1:5.0 2:5.0 3:4.0 4:1.0 5:1.0 6:1.0 
-0.05 1:1.0 2:4.0 3:4.0 4:8.0 5:1.0 6:3.0 
-0.04599873458997203 1:4.0 2:4.0 3:4.0 4:9.0 5:5.0 6:3.0 
-0.05 1:1.0 2:4.0 3:4.0 4:1.0 5:5.0 6:3.0 
-0.05 1:4.0 2:5.0 3:4.0 4:2.0 5:5.0 6:3.0 
-0.05 1:1.0 2:5.0 3:4.0 4:10.0 5:1.0 6:1.0 
-0.05 1:1.0 2:1.0 3:4.0 4:2.0 5:5.0 6:3.0 
-0.05 1:4.0 2:5.0 3:1.0 4:10.0 5:5.0 6:3.0 
-0.05 1:4.0 2:4.0 3:4.0 4:8.0 5:5.0 6:2.0 
-0.04927814071726574 1:1.0 2:1.0 3:1.0 4:8.0 5:6.0 6:1.0 
-0.05 1:4.0 2:4.0 3:4.0 4:2.0 5:1.0 6:3.0 
-0.05 1:5.0 2:5.0 3:4.0 4:2.0 5:1.0 6:1.0 
-0.05 1:4.0 2:4.0 3:4.0 4:8.0 5:5.0 6:3.0 
-0.046357230578268946 1:1.0 2:1.0 3:4.0 4:2.0 5:5.0 6:2.0 
-0.05 1:5.0 2:1.0 3:1.0 4:10.0 5:6.0 6:3.0 
-0.05 1:5.0 2:1.0 3:4.0 4:8.0 5:5.0 6:3.0 
-0.05 1:5.0 2:5.0 3:1.0 4:1.0 5:5.0 6:3.0 
-0.05 1:4.0 2:4.0 3:4.0 4:2.0 5:1.0 6:3.0 
-0.05 1:5.0 2:5.0 3:1.0 4:1.0 5:6.0 6:1.0 
-0.05 1:4.0 2:1.0 3:4.0 4:8.0 5:6.0 6:3.0 
-0.023536566476662427 1:1.0 2:5.0 3:4.0 4:8.0 5:1.0 6:1.0 
-0.05 1:1.0 2:4.0 3:4.0 4:2.0 5:6.0 6:3.0 
-0.01848716990161087 1:4.0 2:4.0 3:4.0 4:9.0 5:1.0 6:3.0 
-0.05 1:5.0 2:5.0 3:1.0 4:2.0 5:6.0 6:1.0 
-0.03923262996538793 1:5.0 2:5.0 3:4.0 4:10.0 5:6.0 6:3.0 
-0.05 1:5.0 2:5.0 3:1.0 4:10.0 5:5.0 6:1.0 
-0.05 1:5.0 2:1.0 3:4.0 4:2.0 5:5.0 6:3.0 
-0.05 1:1.0 2:1.0 3:1.0 4:10.0 5:6.0 6:1.0 
-0.0249555461744077 1:1.0 2:1.0 3:1.0 4:10.0 5:6.0 6:3.0 
-0.05 1:1.0 2:5.0 3:1.0 4:8.0 5:6.0 6:3.0 
-0.012299081619880988 1:4.0 2:4.0 3:3.0 4:8.0 5:1.0 6:3.0 
-0.02072660722662564 1:1.0 2:5.0 3:1.0 4:1.0 5:6.0 6:3.0 
-0.05 1:1.0 2:5.0 3:1.0 4:10.0 5:1.0 6:1.0 
-0.0024922693394473414 1:4.0 2:4.0 3:1.0 4:8.0 5:6.0 6:1.0 
-0.05 1:5.0 2:1.0 3:1.0 4:8.0 5:6.0 6:1.0 
-0.05 1:1.0 2:5.0 3:1.0 4:10.0 5:5.0 6:3.0 
-0.03425258785572216 1:1.0 2:1.0 3:1.0 4:10.0 5:6.0 6:3.0 
-0.05 1:5.0 2:5.0 3:1.0 4:10.0 5:6.0 6:1.0 
-0.05 1:1.0 2:4.0 3:4.0 4:8.0 5:5.0 6:3.0 
-0.05 1:4.0 2:5.0 3:4.0 4:2.0 5:5.0 6:3.0 
-0.05 1:4.0 2:4.0 3:4.0 4:2.0 5:1.0 6:3.0 
-0.05 1:4.0 2:1.0 3:4.0 4:8.0 5:1.0 6:2.0 
-0.05 1:1.0 2:4.0 3:4.0 4:2.0 5:5.0 6:3.0 
-0.05 1:5.0 2:5.0 3:4.0 4:8.0 5:1.0 6:3.0 
-0.05 1:1.0 2:5.0 3:1.0 4:10.0 5:1.0 6:1.0 
-0.05 1:5.0 2:5.0 3:4.0 4:10.0 5:6.0 6:3.0 
-0.05 1:1.0 2:5.0 3:4.0 4:8.0 5:1.0 6:3.0 
-0.05 1:5.0 2:1.0 3:1.0 4:1.0 5:1.0 6:3.0 
-0.05 1:5.0 2:1.0 3:4.0 4:2.0 5:5.0 6:3.0 
-0.05 1:1.0 2:5.0 3:1.0 4:8.0 5:6.0 6:3.0 
-0.05 1:4.0 2:5.0 3:1.0 4:1.0 5:5.0 6:1.0 
-0.05 1:4.0 2:4.0 3:4.0 4:2.0 5:5.0 6:3.0 
-0.05 1:4.0 2:1.0 3:4.0 4:2.0 5:5.0 6:3.0 
-0.021746996187754775 1:5.0 2:4.0 3:3.0 4:10.0 5:6.0 6:1.0 
-0.05 1:1.0 2:1.0 3:4.0 4:8.0 5:6.0 6:3.0 
-0.05 1:5.0 2:5.0 3:1.0 4:10.0 5:6.0 6:3.0 
-0.05 1:5.0 2:1.0 3:4.0 4:2.0 5:1.0 6:3.0 
-0.0017141923781416588 1:4.0 2:1.0 3:3.0 4:8.0 5:1.0 6:3.0 
-0.04906359009805569 1:5.0 2:1.0 3:4.0 4:10.0 5:6.0 6:3.0 
-0.05 1:5.0 2:5.0 3:4.0 4:1.0 5:5.0 6:1.0 
-0.05 1:1.0 2:5.0 3:1.0 4:10.0 5:5.0 6:3.0 
-0.05 1:1.0 2:5.0 3:1.0 4:8.0 5:6.0 6:3.0 
-0.05 1:5.0 2:1.0 3:1.0 4:10.0 5:6.0 6:3.0 
-0.05 1:5.0 2:1.0 3:4.0 4:1.0 5:6.0 6:1.0 
-0.04897288592212965 1:1.0 2:5.0 3:1.0 4:10.0 5:1.0 6:1.0 
-0.05 1:1.0 2:5.0 3:4.0 4:8.0 5:1.0 6:3.0 
-0.05 1:1.0 2:5.0 3:1.0 4:8.0 5:1.0 6:1.0 
-0.05 1:1.0 2:1.0 3:3.0 4:8.0 5:5.0 6:3.0 
-0.05 1:5.0 2:5.0 3:4.0 4:10.0 5:1.0 6:1.0 
-0.05 1:1.0 2:5.0 3:1.0 4:1.0 5:1.0 6:1.0 
-0.05 1:1.0 2:1.0 3:1.0 4:10.0 5:6.0 6:1.0 
-0.05 1:5.0 2:5.0 3:1.0 4:10.0 5:6.0 6:3.0 
-0.05 1:5.0 2:5.0 3:4.0 4:1.0 5:6.0 6:1.0 
-0.04688786429156086 1:5.0 2:5.0 3:1.0 4:1.0 5:6.0 6:1.0 
-0.05 1:4.0 2:4.0 3:4.0 4:8.0 5:1.0 6:3.0 
-0.05 1:5.0 2:1.0 3:1.0 4:2.0 5:1.0 6:1.0 
-0.05 1:4.0 2:4.0 3:4.0 4:2.0 5:5.0 6:3.0 
-0.04061277045838065 1:5.0 2:5.0 3:1.0 4:2.0 5:1.0 6:3.0 
-0.035668582462505795 1:5.0 2:5.0 3:4.0 4:8.0 5:1.0 6:1.0 
-0.03062883199252283 1:1.0 2:4.0 3:1.0 4:10.0 5:6.0 6:3.0 
-0.05 1:5.0 2:5.0 3:1.0 4:8.0 5:6.0 6:3.0 
-0.05 1:1.0 2:1.0 3:4.0 4:8.0 5:5.0 6:2.0 
-0.006520967978146634 1:5.0 2:4.0 3:1.0 4:8.0 5:5.0 6:3.0 
-0.05 1:5.0 2:5.0 3:4.0 4:10.0 5:1.0 6:1.0 
-0.05 1:4.0 2:1.0 3:4.0 4:2.0 5:5.0 6:3.0 
-0.015260366059551498 1:1.0 2:1.0 3:1.0 4:2.0 5:6.0 6:3.0 
-0.04802751925176132 1:1.0 2:5.0 3:4.0 4:10.0 5:6.0 6:1.0 
-0.05 1:4.0 2:1.0 3:3.0 4:8.0 5:1.0 6:3.0 
-0.05 1:5.0 2:1.0 3:4.0 4:8.0 5:1.0 6:3.0 
-0.05 1:1.0 2:5.0 3:1.0 4:8.0 5:1.0 6:3.0 
-0.05 1:1.0 2:5.0 3:4.0 4:2.0 5:5.0 6:3.0 
-0.008100701954000538 1:4.0 2:5.0 3:1.0 4:1.0 5:6.0 6:3.0 
-0.05 1:1.0 2:1.0 3:1.0 4:1.0 5:1.0 6:1.0 
-0.028483076929993755 1:1.0 2:4.0 3:4.0 4:1.0 5:1.0 6:3.0 
-0.05 1:5.0 2:1.0 3:1.0 4:10.0 5:6.0 6:3.0 
-0.05 1:5.0 2:5.0 3:1.0 4:8.0 5:6.0 6:1.0 
-0.05 1:1.0 2:1.0 3:1.0 4:2.0 5:1.0 6:3.0 
-0.05 1:1.0 2:4.0 3:3.0 4:8.0 5:1.0 6:3.0 
-0.05 1:1.0 2:4.0 3:4.0 4:8.0 5:6.0 6:3.0 
-0.05 1:1.0 2:1.0 3:1.0 4:8.0 5:1.0 6:3.0 
-0.05 1:1.0 2:5.0 3:4.0 4:8.0 5:5.0 6:3.0 
-0.05 1:4.0 2:1.0 3:4.0 4:9.0 5:5.0 6:3.0 
-0.05 1:1.0 2:1.0 3:4.0 4:10.0 5:1.0 6:3.0 
-0.05 1:1.0 2:1.0 3:4.0 4:8.0 5:5.0 6:2.0 
-0.05 1:5.0 2:1.0 3:1.0 4:2.0 5:6.0 6:1.0 
-0.05 1:4.0 2:1.0 3:4.0 4:2.0 5:1.0 6:3.0 
-0.04092542531154011 1:1.0 2:5.0 3:1.0 4:1.0 5:6.0 6:3.0 
-0.05 1:1.0 2:5.0 3:1.0 4:10.0 5:5.0 6:1.0 
-0.05 1:1.0 2:4.0 3:4.0 4:2.0 5:5.0 6:3.0 
-0.007623092917040858 1:5.0 2:1.0 3:4.0 4:10.0 5:5.0 6:1.0 
-8.593978035961137E-4 1:4.0 2:5.0 3:4.0 4:2.0 5:5.0 6:1.0 
-0.05 1:5.0 2:1.0 3:1.0 4:10.0 5:6.0 6:3.0 
-0.05 1:1.0 2:4.0 3:4.0 4:8.0 5:5.0 6:3.0 
-0.05 1:4.0 2:5.0 3:4.0 4:8.0 5:1.0 6:3.0 
-0.05 1:1.0 2:1.0 3:4.0 4:10.0 5:1.0 6:3.0 
-0.05 1:4.0 2:4.0 3:4.0 4:8.0 5:1.0 6:3.0 
-0.05 1:5.0 2:5.0 3:1.0 4:8.0 5:1.0 6:3.0 
-0.05 1:4.0 2:1.0 3:4.0 4:2.0 5:5.0 6:3.0 
-0.03314078998160841 1:1.0 2:4.0 3:4.0 4:2.0 5:1.0 6:2.0 
-0.05 1:1.0 2:4.0 3:4.0 4:2.0 5:1.0 6:2.0 
-0.05 1:1.0 2:5.0 3:1.0 4:8.0 5:6.0 6:1.0 
-0.05 1:5.0 2:4.0 3:1.0 4:8.0 5:5.0 6:3.0 
-0.05 1:4.0 2:5.0 3:4.0 4:2.0 5:5.0 6:3.0 
-0.05 1:1.0 2:1.0 3:1.0 4:10.0 5:6.0 6:1.0 
-0.05 1:1.0 2:1.0 3:1.0 4:1.0 5:6.0 6:1.0 
-0.05 1:4.0 2:4.0 3:4.0 4:8.0 5:1.0 6:2.0 
-0.01694890737950666 1:4.0 2:5.0 3:1.0 4:2.0 5:6.0 6:1.0 
-0.04118239439450822 1:1.0 2:1.0 3:1.0 4:10.0 5:1.0 6:3.0 
-0.05 1:5.0 2:1.0 3:1.0 4:1.0 5:1.0 6:1.0 
-0.033648336744017016 1:1.0 2:1.0 3:1.0 4:2.0 5:6.0 6:1.0 
-0.04226363261763655 1:1.0 2:5.0 3:1.0 4:10.0 5:1.0 6:3.0 
-0.05 1:1.0 2:5.0 3:1.0 4:2.0 5:5.0 6:3.0 
-0.03955302427974692 1:1.0 2:1.0 3:4.0 4:2.0 5:5.0 6:2.0 
-0.05 1:4.0 2:5.0 3:4.0 4:2.0 5:1.0 6:3.0 
-0.02147675701916603 1:1.0 2:1.0 3:4.0 4:10.0 5:1.0 6:3.0 
-0.05 1:1.0 2:1.0 3:3.0 4:8.0 5:1.0 6:3.0 
-0.05 1:4.0 2:4.0 3:4.0 4:8.0 5:5.0 6:3.0 
-0.0028436521415971337 1:5.0 2:4.0 3:1.0 4:10.0 5:6.0 6:1.0 
-0.024008571002131874 1:1.0 2:1.0 3:4.0 4:10.0 5:6.0 6:1.0 
-0.009015857423695454 1:5.0 2:4.0 3:4.0 4:8.0 5:6.0 6:3.0 
-0.045456920846736686 1:1.0 2:1.0 3:1.0 4:8.0 5:1.0 6:3.0 
-0.04438374634360411 1:5.0 2:1.0 3:1.0 4:10.0 5:6.0 6:3.0 
-0.030371073158003414 1:5.0 2:1.0 3:1.0 4:8.0 5:1.0 6:3.0 
-0.02698862647825577 1:5.0 2:1.0 3:4.0 4:1.0 5:6.0 6:1.0 
-0.05 1:1.0 2:4.0 3:4.0 4:2.0 5:1.0 6:2.0 
-0.05 1:1.0 2:5.0 3:4.0 4:8.0 5:5.0 6:3.0 
-0.006637979568170549 1:1.0 2:1.0 3:4.0 4:1.0 5:5.0 6:3.0 
-0.039421975859961676 1:4.0 2:1.0 3:4.0 4:2.0 5:5.0 6:1.0 
-0.04921262334589667 1:1.0 2:5.0 3:1.0 4:2.0 5:1.0 6:3.0 
-0.05 1:1.0 2:1.0 3:3.0 4:8.0 5:1.0 6:3.0 
-0.05 1:5.0 2:1.0 3:4.0 4:2.0 5:5.0 6:3.0 
-0.05 1:1.0 2:5.0 3:4.0 4:2.0 5:5.0 6:1.0 
-0.027819833316854014 1:4.0 2:5.0 3:1.0 4:2.0 5:5.0 6:1.0 
-0.05 1:4.0 2:4.0 3:4.0 4:2.0 5:1.0 6:3.0 
-0.05 1:1.0 2:5.0 3:1.0 4:1.0 5:6.0 6:1.0 
-0.05 1:5.0 2:1.0 3:1.0 4:8.0 5:6.0 6:1.0 
-0.05 1:1.0 2:1.0 3:1.0 4:10.0 5:1.0 6:1.0 
-0.011556980601121725 1:4.0 2:5.0 3:1.0 4:10.0 5:6.0 6:3.0 
-0.05 1:1.0 2:1.0 3:4.0 4:1.0 5:1.0 6:3.0 
-0.04519284443919325 1:5.0 2:1.0 3:4.0 4:10.0 5:5.0 6:1.0 
-0.005054251289633223 1:1.0 2:1.0 3:3.0 4:2.0 5:1.0 6:3.0 
-0.05 1:1.0 2:4.0 3:4.0 4:2.0 5:6.0 6:3.0 
-0.05 1:4.0 2:1.0 3:4.0 4:9.0 5:5.0 6:3.0 
-0.05 1:5.0 2:1.0 3:4.0 4:2.0 5:5.0 6:3.0 
-0.05 1:1.0 2:5.0 3:4.0 4:2.0 5:5.0 6:1.0 
-0.01845948126021831 1:1.0 2:5.0 3:1.0 4:8.0 5:5.0 6:1.0 
-0.05 1:5.0 2:5.0 3:1.0 4:10.0 5:6.0 6:1.0 
-0.02165735953345088 1:1.0 2:4.0 3:1.0 4:10.0 5:6.0 6:1.0 
-0.03545273785919809 1:5.0 2:5.0 3:4.0 4:10.0 5:1.0 6:1.0 
-0.05 1:4.0 2:4.0 3:4.0 4:8.0 5:1.0 6:3.0 
-0.04681080132059248 1:5.0 2:1.0 3:1.0 4:1.0 5:6.0 6:3.0 
-0.05 1:4.0 2:1.0 3:4.0 4:9.0 5:5.0 6:3.0 
-0.05 1:1.0 2:5.0 3:1.0 4:8.0 5:1.0 6:3.0 
-0.05 1:1.0 2:1.0 3:4.0 4:2.0 5:6.0 6:3.0 
-0.05 1:5.0 2:1.0 3:4.0 4:8.0 5:1.0 6:3.0 
-0.05 1:4.0 2:1.0 3:4.0 4:8.0 5:5.0 6:3.0 
-0.024583758342474633 1:1.0 2:5.0 3:1.0 4:2.0 5:1.0 6:1.0 
-8.291197681613866E-4 1:4.0 2:4.0 3:1.0 4:8.0 5:6.0 6:3.0 
-0.02423449105001502 1:1.0 2:5.0 3:1.0 4:10.0 5:5.0 6:3.0 
-0.05 1:5.0 2:5.0 3:3.0 4:10.0 5:6.0 6:1.0 
-0.03527316497301335 1:1.0 2:5.0 3:4.0 4:8.0 5:6.0 6:3.0 
